{"learner":{"attributes":{},"feature_names":["Best_of","Rank_1","Rank_2","Rank_Diff","Pts_1","Pts_2","Pts_Diff","P1_Total_Matches","P1_Wins","P1_Losses","P2_Total_Matches","P2_Wins","P2_Losses","P1_Win_Pct","P2_Win_Pct","P1_WinPct_Hard","P2_WinPct_Hard","P1_WinPct_Clay","P2_WinPct_Clay","P1_WinPct_Grass","P2_WinPct_Grass","P1_WinPct_Carpet","P2_WinPct_Carpet","P1_WinPct_ATP250","P2_WinPct_ATP250","P1_WinPct_ATP500","P2_WinPct_ATP500","P1_WinPct_Grand_Slam","P2_WinPct_Grand_Slam","P1_WinPct_Masters_1000","P2_WinPct_Masters_1000","P1_WinPct_Indoor","P2_WinPct_Indoor","P1_WinPct_Outdoor","P2_WinPct_Outdoor","Tournament_Encoded","Surface_Encoded","Series_Encoded","Round_Encoded","Court_Encoded","Win_Pct_Diff","Experience_Diff","Surface_Advantage","Series_Advantage","Court_Advantage"],"feature_types":["int","float","float","float","int","int","int","int","int","int","int","int","int","float","float","float","float","float","float","float","float","float","float","float","float","float","float","float","float","float","float","float","float","float","float","int","int","int","int","int","float","int","float","float","float"],"gradient_booster":{"model":{"gbtree_model_param":{"num_parallel_tree":"1","num_trees":"100"},"iteration_indptr":[0,1,2,3,4,5,6,7,8,9,10,11,12,13,14,15,16,17,18,19,20,21,22,23,24,25,26,27,28,29,30,31,32,33,34,35,36,37,38,39,40,41,42,43,44,45,46,47,48,49,50,51,52,53,54,55,56,57,58,59,60,61,62,63,64,65,66,67,68,69,70,71,72,73,74,75,76,77,78,79,80,81,82,83,84,85,86,87,88,89,90,91,92,93,94,95,96,97,98,99,100],"tree_info":[0,0,0,0,0,0,0,0,0,0,0,0,0,0,0,0,0,0,0,0,0,0,0,0,0,0,0,0,0,0,0,0,0,0,0,0,0,0,0,0,0,0,0,0,0,0,0,0,0,0,0,0,0,0,0,0,0,0,0,0,0,0,0,0,0,0,0,0,0,0,0,0,0,0,0,0,0,0,0,0,0,0,0,0,0,0,0,0,0,0,0,0,0,0,0,0,0,0,0,0],"trees":[{"base_weights":[-1.757058E-7,6.0552996E-1,-6.227385E-1,2.8889844E-1,9.3455946E-1,-9.395133E-1,-3.0575466E-1,1.1884938E-1,5.937152E-1,7.441084E-1,1.2997017E0,-1.29952E0,-7.498484E-1,-6.253478E-1,-1.4555125E-1,9.1387707E-1,6.7141056E-2,1.2683235E0,5.1557237E-1,4.627224E-1,8.602533E-1,1.1217241E0,1.5521374E0,-1.552168E0,-1.1214032E0,-8.65486E-1,-4.6972343E-1,-5.422083E-1,-1.2862903E0,-9.310564E-1,-9.3636826E-2,1.388266E0,7.427695E-1,-2.1816585E-2,4.054104E-1,1.5038593E0,9.9486727E-1,2.8933913E-1,6.1857074E-1,6.801462E-1,1.7967166E-1,9.356506E-1,4.3697587E-1,1.039174E0,1.3731273E0,1.4272863E0,1.7192557E0,-1.7187519E0,-1.4276614E0,-1.03878E0,-1.3726676E0,-9.375993E-1,-4.5521668E-1,-1.8766136E-1,-6.8046457E-1,-6.388792E-1,-3.204729E-1,-1.0126734E0,-1.5174295E0,-1.425119E0,-7.5816584E-1,-6.0078466E-1,-2.990811E-2,-3.1571608E-2,4.3754765E-1,2.970032E-1,1.4201349E-1,-8.460214E-2,1.8829873E-2,8.1951626E-2,1.8956542E-1,7.500814E-2,4.6752927E-1,3.9819098E-1,2.350777E-1,1.7143783E-1,5.5003118E-2,1.6991507E-1,3.0462465E-1,5.8956604E-2,2.322407E-1,-1.2347748E-1,8.6178094E-2,3.26107E-1,2.3816882E-1,2.5205386E-1,9.2907995E-2,2.8616828E-1,3.838188E-1,3.4694803E-1,4.487996E-1,-2.9999536E-1,4.2976707E-1,4.8586538E-1,5.642138E-1,-4.857523E-1,-5.6409335E-1,3.0000466E-1,-4.2988288E-1,-3.405215E-1,-2.482936E-1,-4.4893336E-1,-3.4606588E-1,-2.3841375E-1,-3.2611626E-1,-9.818567E-2,-2.5302947E-1,1.12791166E-1,-8.6793445E-2,-1.1723212E-1,-2.5067747E-1,-3.0746126E-1,-1.7622903E-1,-6.277453E-2,-1.7654577E-1,-3.13854E-1,1.7143522E-1,-1.0344026E-1,-4.6908167E-1,4.616029E-2,-4.4122162E-1,-1.4346905E-1,-2.9999077E-1,-2.370639E-1,-1.0824762E-1,-3.336107E-2,7.1950324E-2],"categories":[],"categories_nodes":[],"categories_segments":[],"categories_sizes":[],"default_left":[0,0,0,0,0,0,0,0,0,0,0,0,0,0,0,0,0,0,0,0,0,0,0,0,0,0,0,0,0,0,0,0,0,0,0,0,0,0,0,0,0,0,0,0,0,0,0,0,0,0,0,0,0,0,0,0,0,0,0,0,0,0,0,0,0,0,0,0,0,0,0,0,0,0,0,0,0,0,0,0,0,0,0,0,0,0,0,0,0,0,0,0,0,0,0,0,0,0,0,0,0,0,0,0,0,0,0,0,0,0,0,0,0,0,0,0,0,0,0,0,0,0,0,0,0,0,0],"id":0,"left_children":[1,3,5,7,9,11,13,15,17,19,21,23,25,27,29,31,33,35,37,39,41,43,45,47,49,51,53,55,57,59,61,63,65,67,69,71,73,75,77,79,81,83,85,87,89,91,93,95,97,99,101,103,105,107,109,111,113,115,117,119,121,123,125,-1,-1,-1,-1,-1,-1,-1,-1,-1,-1,-1,-1,-1,-1,-1,-1,-1,-1,-1,-1,-1,-1,-1,-1,-1,-1,-1,-1,-1,-1,-1,-1,-1,-1,-1,-1,-1,-1,-1,-1,-1,-1,-1,-1,-1,-1,-1,-1,-1,-1,-1,-1,-1,-1,-1,-1,-1,-1,-1,-1,-1,-1,-1,-1],"loss_changes":[1.2098453E4,1.694418E3,1.5879619E3,4.296834E2,5.537495E2,5.3917676E2,4.0477228E2,2.1877505E2,1.5584607E2,1.7100879E2,1.21046875E2,1.21032715E2,1.6750269E2,1.443717E2,2.147572E2,2.5349579E1,1.5044449E2,1.830954E1,6.1855896E1,9.4313934E1,1.18031494E2,3.191333E1,2.107129E1,2.0890137E1,3.1868408E1,1.08086426E2,9.003107E1,5.0098633E1,1.7072754E1,2.6808777E1,1.597392E2,9.068573E0,1.5583054E1,8.715149E1,3.1003876E1,1.0780518E1,9.161621E0,2.485714E1,3.729358E1,3.928055E1,4.2611847E1,6.6713135E1,2.8633408E1,2.3639526E1,8.757446E0,9.76416E0,4.636841E0,4.621216E0,9.76709E0,2.3680786E1,8.95282E0,6.573193E1,2.7051987E1,3.7349384E1,3.866916E1,3.183258E1,2.1175827E1,7.9093933E0,7.9890747E0,6.241028E0,1.6037994E1,2.4794708E1,9.63436E1,0E0,0E0,0E0,0E0,0E0,0E0,0E0,0E0,0E0,0E0,0E0,0E0,0E0,0E0,0E0,0E0,0E0,0E0,0E0,0E0,0E0,0E0,0E0,0E0,0E0,0E0,0E0,0E0,0E0,0E0,0E0,0E0,0E0,0E0,0E0,0E0,0E0,0E0,0E0,0E0,0E0,0E0,0E0,0E0,0E0,0E0,0E0,0E0,0E0,0E0,0E0,0E0,0E0,0E0,0E0,0E0,0E0,0E0,0E0,0E0,0E0,0E0,0E0,0E0],"parents":[2147483647,0,0,1,1,2,2,3,3,4,4,5,5,6,6,7,7,8,8,9,9,10,10,11,11,12,12,13,13,14,14,15,15,16,16,17,17,18,18,19,19,20,20,21,21,22,22,23,23,24,24,25,25,26,26,27,27,28,28,29,29,30,30,31,31,32,32,33,33,34,34,35,35,36,36,37,37,38,38,39,39,40,40,41,41,42,42,43,43,44,44,45,45,46,46,47,47,48,48,49,49,50,50,51,51,52,52,53,53,54,54,55,55,56,56,57,57,58,58,59,59,60,60,61,61,62,62],"right_children":[2,4,6,8,10,12,14,16,18,20,22,24,26,28,30,32,34,36,38,40,42,44,46,48,50,52,54,56,58,60,62,64,66,68,70,72,74,76,78,80,82,84,86,88,90,92,94,96,98,100,102,104,106,108,110,112,114,116,118,120,122,124,126,-1,-1,-1,-1,-1,-1,-1,-1,-1,-1,-1,-1,-1,-1,-1,-1,-1,-1,-1,-1,-1,-1,-1,-1,-1,-1,-1,-1,-1,-1,-1,-1,-1,-1,-1,-1,-1,-1,-1,-1,-1,-1,-1,-1,-1,-1,-1,-1,-1,-1,-1,-1,-1,-1,-1,-1,-1,-1,-1,-1,-1,-1,-1,-1],"split_conditions":[2E0,9.325397E-2,-9.322034E-2,3.0303031E-2,1.14E3,-1.14E3,-3.8890827E-2,2E0,-1.51E2,1.6991725E-3,2.361111E-1,-2.3627861E-1,-1.7094017E-3,1.51E2,2E0,2.6E1,7.3E2,-2.78E2,-9.321324E-3,-4.4E1,7.5E1,5E0,4.424E3,-4.424E3,5E0,7.5E1,4.5E1,9.339232E-3,2.78E2,2.6E1,-1.24E3,8E0,-1.43E2,-8.1534E-2,1.61E3,3.6E-1,5E1,-4.5E1,1.47E3,5.3140096E-2,5.120482E-2,-5.2E1,-1.36E2,1.4715719E-1,2.104E3,6E0,5E0,5E0,6E0,-1.1284171E-2,-2.104E3,5.3E1,1.36E2,5.120482E-2,7.7586204E-2,-1.47E3,4.7E1,6.357143E-1,3.6E-1,8E0,1.43E2,8.888889E-2,8.151203E-2,-3.1571608E-2,4.3754765E-1,2.970032E-1,1.4201349E-1,-8.460214E-2,1.8829873E-2,8.1951626E-2,1.8956542E-1,7.500814E-2,4.6752927E-1,3.9819098E-1,2.350777E-1,1.7143783E-1,5.5003118E-2,1.6991507E-1,3.0462465E-1,5.8956604E-2,2.322407E-1,-1.2347748E-1,8.6178094E-2,3.26107E-1,2.3816882E-1,2.5205386E-1,9.2907995E-2,2.8616828E-1,3.838188E-1,3.4694803E-1,4.487996E-1,-2.9999536E-1,4.2976707E-1,4.8586538E-1,5.642138E-1,-4.857523E-1,-5.6409335E-1,3.0000466E-1,-4.2988288E-1,-3.405215E-1,-2.482936E-1,-4.4893336E-1,-3.4606588E-1,-2.3841375E-1,-3.2611626E-1,-9.818567E-2,-2.5302947E-1,1.12791166E-1,-8.6793445E-2,-1.1723212E-1,-2.5067747E-1,-3.0746126E-1,-1.7622903E-1,-6.277453E-2,-1.7654577E-1,-3.13854E-1,1.7143522E-1,-1.0344026E-1,-4.6908167E-1,4.616029E-2,-4.4122162E-1,-1.4346905E-1,-2.9999077E-1,-2.370639E-1,-1.0824762E-1,-3.336107E-2,7.1950324E-2],"split_indices":[3,40,40,42,6,6,42,12,3,42,40,40,42,3,9,1,6,3,40,3,1,0,6,6,0,2,3,40,3,2,6,2,3,40,6,14,1,3,6,27,27,3,3,42,6,7,0,0,10,42,6,3,3,28,28,6,3,14,13,1,3,29,40,0,0,0,0,0,0,0,0,0,0,0,0,0,0,0,0,0,0,0,0,0,0,0,0,0,0,0,0,0,0,0,0,0,0,0,0,0,0,0,0,0,0,0,0,0,0,0,0,0,0,0,0,0,0,0,0,0,0,0,0,0,0,0,0],"split_type":[0,0,0,0,0,0,0,0,0,0,0,0,0,0,0,0,0,0,0,0,0,0,0,0,0,0,0,0,0,0,0,0,0,0,0,0,0,0,0,0,0,0,0,0,0,0,0,0,0,0,0,0,0,0,0,0,0,0,0,0,0,0,0,0,0,0,0,0,0,0,0,0,0,0,0,0,0,0,0,0,0,0,0,0,0,0,0,0,0,0,0,0,0,0,0,0,0,0,0,0,0,0,0,0,0,0,0,0,0,0,0,0,0,0,0,0,0,0,0,0,0,0,0,0,0,0,0],"sum_hessian":[3.2082E4,1.626575E4,1.581625E4,8.29E3,7.97575E3,7.90975E3,7.9065E3,5.32225E3,2.96775E3,5.24375E3,2.732E3,2.72725E3,5.1825E3,2.639E3,5.2675E3,3.24E2,4.99825E3,3.065E2,2.66125E3,1.5335E3,3.71025E3,1.6055E3,1.1265E3,1.1245E3,1.60275E3,3.66675E3,1.51575E3,2.34575E3,2.9325E2,3.255E2,4.942E3,8.4E1,2.4E2,3.95825E3,1.04E3,1.6225E2,1.4425E2,8.3375E2,1.8275E3,8.665E2,6.67E2,3.14825E3,5.62E2,1.2125E3,3.93E2,6.5025E2,4.7625E2,4.755E2,6.49E2,1.21E3,3.9275E2,3.1175E3,5.4925E2,6.49E2,8.6675E2,1.63225E3,7.135E2,1.3675E2,1.565E2,8.25E1,2.43E2,5.5075E2,4.39125E3,3.75E0,8.025E1,1.2375E2,1.1625E2,9.705E2,2.98775E3,6.58E2,3.82E2,7E0,1.5525E2,5.4E1,9.025E1,2.265E2,6.0725E2,1.61725E3,2.1025E2,1.415E2,7.25E2,1.0225E2,5.6475E2,1.51925E3,1.629E3,1.335E2,4.285E2,8.985E2,3.14E2,1.46E2,2.47E2,1E0,6.4925E2,3.0125E2,1.75E2,3.01E2,1.745E2,1E0,6.48E2,8.28E2,3.82E2,2.4725E2,1.455E2,1.597E3,1.5205E3,4.145E2,1.3475E2,9.875E1,5.5025E2,3.035E2,5.6325E2,1.8975E2,1.4425E3,5.055E2,2.08E2,1.3425E2,2.5E0,6.25E0,1.5025E2,2.25E0,8.025E1,1.14E2,1.29E2,3.065E2,2.4425E2,3.37475E3,1.0165E3],"tree_param":{"num_deleted":"0","num_feature":"45","num_nodes":"127","size_leaf_vector":"1"}},{"base_weights":[8.586643E-6,4.6006626E-1,-4.2095625E-1,2.7755848E-1,7.405399E-1,-7.042136E-1,-2.1879868E-1,9.419358E-2,4.4296694E-1,9.0496206E-1,4.5253912E-1,-9.747413E-1,-5.347347E-1,-3.980452E-1,-5.058293E-2,5.1616615E-1,1.994669E-2,6.9923127E-1,3.3812597E-1,7.941587E-1,1.1357226E0,7.2989935E-1,3.9302123E-1,-1.091877E0,-7.767107E-1,-7.6645786E-1,-4.2557982E-1,-2.9535678E-1,-6.978383E-1,4.892479E-2,-3.8165447E-1,1.2396686E-1,7.1851027E-1,-3.765008E-2,4.2560914E-1,6.162923E-1,1.0714352E0,1.612789E-2,3.9562234E-1,7.0342296E-1,1.0027165E0,1.020858E0,1.3052367E0,4.2211163E-1,8.894077E-1,4.849379E-1,1.9628315E-1,-1.2117105E0,-9.462071E-1,-8.675604E-1,-5.7689315E-1,-6.869351E-1,-1.0049984E0,-5.1848304E-1,-2.4222776E-1,-3.5463202E-1,-4.7440752E-2,-1.0524857E0,-6.113779E-1,-1.18071355E-1,1.3273543E-1,-6.774518E-1,-2.0664856E-1,-1.5304571E-1,6.921916E-2,3.0117628E-1,1.5802072E-1,-4.0830523E-2,4.3171242E-2,1.3353094E-1,-3.2302314E-1,2.845772E-1,1.6488831E-1,3.320495E-1,-8.058942E-2,1.4286658E-1,-1.4585392E-2,1.0878854E-1,2.692975E-1,1.5861073E-1,2.434855E-1,2.6811844E-1,4.0903547E-1,5.16257E-2,3.1130272E-1,3.993139E-1,2.4397734E-1,9.356615E-2,2.640355E-1,-9.25357E-2,2.806949E-1,-1.4048643E-1,1.5034446E-1,2.4400666E-2,1.4261296E-1,-2.6460537E-1,-3.766106E-1,-3.1143215E-1,-1.9146611E-1,-1.7688353E-1,-2.8431338E-1,-2.4241236E-1,-1.2286785E-1,-3.0892438E-1,-1.933876E-1,-3.0823436E-1,-1.5580381E-2,-1.745972E-1,-9.9019445E-2,1.5219098E-1,-9.253522E-2,-9.100799E-2,-1.884803E-1,-1.5401225E-1,3.6693353E-3,-3.273178E-1,8.464121E-2,-2.1555907E-1,-1.1900303E-1,-1.0939155E-1,-9.5662605E-3,-5.9070863E-2,4.900677E-2,-3.3165282E-1,-1.8003188E-1,-1.1376604E-1,4.2048384E-2],"categories":[],"categories_nodes":[],"categories_segments":[],"categories_sizes":[],"default_left":[0,0,0,0,0,0,0,0,0,0,0,0,0,0,0,0,0,0,0,0,0,0,0,0,0,0,0,0,0,0,0,0,0,0,0,0,0,0,0,0,0,0,0,0,0,0,0,0,0,0,0,0,0,0,0,0,0,0,0,0,0,0,0,0,0,0,0,0,0,0,0,0,0,0,0,0,0,0,0,0,0,0,0,0,0,0,0,0,0,0,0,0,0,0,0,0,0,0,0,0,0,0,0,0,0,0,0,0,0,0,0,0,0,0,0,0,0,0,0,0,0,0,0,0,0,0,0],"id":1,"left_children":[1,3,5,7,9,11,13,15,17,19,21,23,25,27,29,31,33,35,37,39,41,43,45,47,49,51,53,55,57,59,61,63,65,67,69,71,73,75,77,79,81,83,85,87,89,91,93,95,97,99,101,103,105,107,109,111,113,115,117,119,121,123,125,-1,-1,-1,-1,-1,-1,-1,-1,-1,-1,-1,-1,-1,-1,-1,-1,-1,-1,-1,-1,-1,-1,-1,-1,-1,-1,-1,-1,-1,-1,-1,-1,-1,-1,-1,-1,-1,-1,-1,-1,-1,-1,-1,-1,-1,-1,-1,-1,-1,-1,-1,-1,-1,-1,-1,-1,-1,-1,-1,-1,-1,-1,-1,-1],"loss_changes":[6.126405E3,7.735073E2,9.4574365E2,2.7772784E2,2.8171094E2,3.148694E2,2.9066562E2,1.3610739E2,1.2911713E2,9.604419E1,3.548889E1,6.0584473E1,1.0670593E2,1.4347339E2,1.6389946E2,5.14964E1,8.636313E1,4.246234E1,6.3286285E1,4.7831543E1,2.2571411E1,1.8365097E1,3.221048E1,2.7858765E1,1.7430786E1,2.498993E1,4.8911804E1,5.109503E1,3.5846436E1,5.3561348E1,5.937726E1,1.51767435E1,2.292981E1,5.787955E1,1.393811E1,2.4836731E1,1.2307373E1,1.5483756E1,4.77218E1,3.3421204E1,2.9260681E1,1.0332703E1,5.168274E0,6.399496E0,1.4165253E1,1.9038574E1,1.8265139E1,1.1963379E1,2.069336E1,1.4524353E1,1.1725899E1,1.4108246E1,7.1423035E0,2.2660522E1,4.830361E1,3.9188812E1,1.8697958E1,1.2244812E1,2.178125E1,2.7166485E1,2.5748901E1,1.3471725E1,4.3371872E1,0E0,0E0,0E0,0E0,0E0,0E0,0E0,0E0,0E0,0E0,0E0,0E0,0E0,0E0,0E0,0E0,0E0,0E0,0E0,0E0,0E0,0E0,0E0,0E0,0E0,0E0,0E0,0E0,0E0,0E0,0E0,0E0,0E0,0E0,0E0,0E0,0E0,0E0,0E0,0E0,0E0,0E0,0E0,0E0,0E0,0E0,0E0,0E0,0E0,0E0,0E0,0E0,0E0,0E0,0E0,0E0,0E0,0E0,0E0,0E0,0E0,0E0,0E0,0E0],"parents":[2147483647,0,0,1,1,2,2,3,3,4,4,5,5,6,6,7,7,8,8,9,9,10,10,11,11,12,12,13,13,14,14,15,15,16,16,17,17,18,18,19,19,20,20,21,21,22,22,23,23,24,24,25,25,26,26,27,27,28,28,29,29,30,30,31,31,32,32,33,33,34,34,35,35,36,36,37,37,38,38,39,39,40,40,41,41,42,42,43,43,44,44,45,45,46,46,47,47,48,48,49,49,50,50,51,51,52,52,53,53,54,54,55,55,56,56,57,57,58,58,59,59,60,60,61,61,62,62],"right_children":[2,4,6,8,10,12,14,16,18,20,22,24,26,28,30,32,34,36,38,40,42,44,46,48,50,52,54,56,58,60,62,64,66,68,70,72,74,76,78,80,82,84,86,88,90,92,94,96,98,100,102,104,106,108,110,112,114,116,118,120,122,124,126,-1,-1,-1,-1,-1,-1,-1,-1,-1,-1,-1,-1,-1,-1,-1,-1,-1,-1,-1,-1,-1,-1,-1,-1,-1,-1,-1,-1,-1,-1,-1,-1,-1,-1,-1,-1,-1,-1,-1,-1,-1,-1,-1,-1,-1,-1,-1,-1,-1,-1,-1,-1,-1,-1,-1,-1,-1,-1,-1,-1,-1,-1,-1,-1],"split_conditions":[-3E0,1.3245614E-1,-1.1413044E-1,-8.403362E-3,3E1,1.4E1,7.2442774E-5,7E0,-5.5E1,2.54E3,-1.51E2,-1.923077E-1,-6.57E2,5.6E1,6.7E1,2.8E1,1.24E3,2.215636E-1,-3.984429E-2,1.6806723E-1,2.744361E-1,3E1,6.7E1,-2.54E3,-7.0304335E-3,5E0,-2.4681529E-2,3.6679536E-2,-2.2163284E-1,-3.1364214E-2,3.4E1,-1E0,3.7E1,3.809524E-2,2.514523E-1,1.7E1,1.63E2,1.0344828E-1,2.54E3,6.5E1,5E0,2.3188406E-1,1.615E3,5.55E2,2.6666668E-1,-2.1711889E-1,2E-1,2E1,-2.9850747E-3,1E0,-2.375E3,1.84E2,1.9205298E-1,7.5E1,7.8431375E-2,5E0,1E-1,1.63E2,1.4430014E-3,1.5E1,8E0,4E0,5E1,-1.5304571E-1,6.921916E-2,3.0117628E-1,1.5802072E-1,-4.0830523E-2,4.3171242E-2,1.3353094E-1,-3.2302314E-1,2.845772E-1,1.6488831E-1,3.320495E-1,-8.058942E-2,1.4286658E-1,-1.4585392E-2,1.0878854E-1,2.692975E-1,1.5861073E-1,2.434855E-1,2.6811844E-1,4.0903547E-1,5.16257E-2,3.1130272E-1,3.993139E-1,2.4397734E-1,9.356615E-2,2.640355E-1,-9.25357E-2,2.806949E-1,-1.4048643E-1,1.5034446E-1,2.4400666E-2,1.4261296E-1,-2.6460537E-1,-3.766106E-1,-3.1143215E-1,-1.9146611E-1,-1.7688353E-1,-2.8431338E-1,-2.4241236E-1,-1.2286785E-1,-3.0892438E-1,-1.933876E-1,-3.0823436E-1,-1.5580381E-2,-1.745972E-1,-9.9019445E-2,1.5219098E-1,-9.253522E-2,-9.100799E-2,-1.884803E-1,-1.5401225E-1,3.6693353E-3,-3.273178E-1,8.464121E-2,-2.1555907E-1,-1.1900303E-1,-1.0939155E-1,-9.5662605E-3,-5.9070863E-2,4.900677E-2,-3.3165282E-1,-1.8003188E-1,-1.1376604E-1,4.2048384E-2],"split_indices":[3,40,40,42,1,2,42,12,3,6,3,40,6,3,3,9,6,42,40,42,40,8,1,6,42,0,42,40,42,40,2,41,1,40,28,1,1,16,6,2,0,15,5,2,33,42,42,3,42,39,6,4,31,2,16,0,15,2,44,2,9,7,8,0,0,0,0,0,0,0,0,0,0,0,0,0,0,0,0,0,0,0,0,0,0,0,0,0,0,0,0,0,0,0,0,0,0,0,0,0,0,0,0,0,0,0,0,0,0,0,0,0,0,0,0,0,0,0,0,0,0,0,0,0,0,0,0],"split_type":[0,0,0,0,0,0,0,0,0,0,0,0,0,0,0,0,0,0,0,0,0,0,0,0,0,0,0,0,0,0,0,0,0,0,0,0,0,0,0,0,0,0,0,0,0,0,0,0,0,0,0,0,0,0,0,0,0,0,0,0,0,0,0,0,0,0,0,0,0,0,0,0,0,0,0,0,0,0,0,0,0,0,0,0,0,0,0,0,0,0,0,0,0,0,0,0,0,0,0,0,0,0,0,0,0,0,0,0,0,0,0,0,0,0,0,0,0,0,0,0,0,0,0,0,0,0,0],"sum_hessian":[3.1631525E4,1.5113939E4,1.6517586E4,9.157213E3,5.956726E3,6.877936E3,9.639649E3,4.3436235E3,4.81359E3,3.790535E3,2.1661912E3,2.647369E3,4.2305674E3,4.66615E3,4.9734995E3,6.4902454E2,3.6945989E3,1.3959004E3,3.4176895E3,2.5638862E3,1.2266487E3,3.807214E2,1.7854697E3,1.6606031E3,9.867658E2,1.3527711E3,2.8777961E3,3.4771155E3,1.1890345E3,3.8247693E3,1.1487303E3,2.2143484E2,4.2758966E2,3.2360457E3,4.585531E2,1.1437026E3,2.5219775E2,5.1800055E2,2.899689E3,1.7896493E3,7.74237E2,7.353738E2,4.9127487E2,1.3120131E2,2.4952008E2,1.215922E3,5.6954767E2,9.070838E2,7.5351935E2,6.7604926E2,3.1071655E2,1.01745886E3,3.353123E2,1.908795E3,9.6900116E2,2.8058284E3,6.712871E2,2.3086952E2,9.5816504E2,1.2779642E3,2.546805E3,4.2593625E2,7.227941E2,3.1365019E1,1.9006982E2,1.701408E2,2.5744888E2,2.098396E3,1.1376498E3,4.53374E2,5.179084E0,1.8889629E2,9.548063E2,2.4587723E2,6.3205185E0,6.3118134E1,4.548824E2,2.722489E3,1.7719998E2,6.8666547E2,1.1029839E3,5.9726385E2,1.7697313E2,1.4505947E1,7.2086786E2,4.6516644E2,2.6108406E1,1.07106E2,2.4095306E1,9.063629E0,2.4045645E2,1.9865465E1,1.1960565E3,4.043169E2,1.6523079E2,1.08549965E2,7.985338E2,5.7852344E2,1.7499588E2,1.5318558E2,5.228637E2,1.2887073E2,1.8184581E2,1.092148E2,9.082441E2,3.2751953E2,7.792753E0,1.4260475E3,4.8274753E2,7.812288E1,8.908783E2,2.3648306E3,4.409979E2,7.53479E1,5.959392E2,2.2456166E2,6.307857E0,6.376049E2,3.2056015E2,3.30161E2,9.478032E2,2.1600613E2,2.3307988E3,6.314977E1,3.6278647E2,4.8257352E2,2.4022063E2],"tree_param":{"num_deleted":"0","num_feature":"45","num_nodes":"127","size_leaf_vector":"1"}},{"base_weights":[1.3451922E-5,3.0716133E-1,-3.3618873E-1,1.1156499E-1,4.799392E-1,-5.8487296E-1,-2.123629E-1,7.2457033E-1,7.763535E-2,7.402706E-1,3.6512282E-1,-8.2599694E-1,-4.3534157E-1,-3.6789238E-1,-7.018632E-2,9.8702085E-1,5.049507E-1,-6.250775E-2,1.6520073E-1,5.628209E-1,8.947033E-1,2.8489053E-1,5.4645854E-1,-1.0740603E0,-7.582262E-1,-6.7290473E-1,-3.6715075E-1,-7.1702224E-1,-3.2678744E-1,-1.2714018E-2,-3.096604E-1,9.9984086E-1,-1.5747002E-1,8.76193E-1,4.215237E-1,2.7630305E-1,-1.1869273E-1,1.2861055E-1,4.6627733E-1,4.6672255E-1,7.6434666E-1,6.525894E-1,9.6109176E-1,1.3934009E-1,3.7677118E-1,6.4620775E-1,3.5232395E-1,-1.1557468E0,-6.911261E-1,-9.3018496E-1,-6.6506153E-1,-5.806023E-1,-9.3662965E-1,-7.8162587E-1,-3.2459527E-1,-5.7004714E-1,-9.750262E-1,-3.0586737E-1,-8.803161E-1,3.0972484E-1,-4.798844E-2,-5.1594174E-1,-4.8514746E-2,2.4231252E-1,3.2878873E-1,3.052923E-1,4.2875167E-2,-3.49412E-1,1.329394E-1,1.4440746E-2,1.3746628E-1,-1.1557595E-1,-1.88857E-2,8.3868586E-2,2.1405812E-2,1.3654163E-2,1.6536272E-1,1.7362508E-1,9.397417E-2,1.6515394E-1,2.6824307E-1,1.4911038E-1,2.7223033E-1,-1.02309585E-1,2.9264894E-1,-1.4809357E-1,5.6095704E-2,1.1679855E-1,-8.175619E-2,1.7078003E-1,2.5934047E-1,4.2689905E-2,1.6848147E-1,-3.507083E-1,1.2001588E-1,1.10315606E-1,-2.2284585E-1,-2.5862277E-1,-3.3742887E-1,-2.2412212E-1,-1.5366778E-1,-1.9121163E-1,-2.6175054E-3,-2.862324E-1,2.0594509E-1,-2.7876726E-1,-1.5997271E-1,-1.4230195E-1,-7.150738E-2,-1.8338056E-1,1.7503363E-1,1.7892575E-1,-2.9654217E-1,-1.3443805E-1,-7.208785E-2,-1.2904687E-1,-2.9111677E-1,1.3187144E-2,1.9497734E-1,-4.4138495E-2,1.7759243E-2,-9.335241E-2,-2.1505913E-1,-8.0050185E-2,5.450154E-2],"categories":[],"categories_nodes":[],"categories_segments":[],"categories_sizes":[],"default_left":[0,0,0,0,0,0,0,0,0,0,0,0,0,0,0,0,0,0,0,0,0,0,0,0,0,0,0,0,0,0,0,0,0,0,0,0,0,0,0,0,0,0,0,0,0,0,0,0,0,0,0,0,0,0,0,0,0,0,0,0,0,0,0,0,0,0,0,0,0,0,0,0,0,0,0,0,0,0,0,0,0,0,0,0,0,0,0,0,0,0,0,0,0,0,0,0,0,0,0,0,0,0,0,0,0,0,0,0,0,0,0,0,0,0,0,0,0,0,0,0,0,0,0,0,0],"id":2,"left_children":[1,3,5,7,9,11,13,15,17,19,21,23,25,27,29,31,33,35,37,39,41,43,45,47,49,51,53,55,57,59,61,63,-1,65,67,69,71,73,75,77,79,81,83,85,87,89,91,93,95,97,99,101,103,105,107,109,111,113,115,117,119,121,123,-1,-1,-1,-1,-1,-1,-1,-1,-1,-1,-1,-1,-1,-1,-1,-1,-1,-1,-1,-1,-1,-1,-1,-1,-1,-1,-1,-1,-1,-1,-1,-1,-1,-1,-1,-1,-1,-1,-1,-1,-1,-1,-1,-1,-1,-1,-1,-1,-1,-1,-1,-1,-1,-1,-1,-1,-1,-1,-1,-1,-1,-1],"loss_changes":[3.1828733E3,5.442903E2,4.5301465E2,1.5710364E2,2.5535925E2,1.7598682E2,2.1724023E2,2.2336761E1,8.7887085E1,7.11991E1,8.621808E1,3.0639893E1,4.8691345E1,6.710217E1,7.066001E1,4.0028687E0,6.3742294E0,5.2467045E1,4.8494698E1,2.3274292E1,2.1832153E1,5.5016357E1,3.501483E1,1.1684418E1,2.2978394E1,1.5827698E1,4.118564E1,1.8154083E1,4.8363007E1,4.7121044E1,5.35035E1,2.4071808E0,0E0,3.9022217E0,6.675585E0,1.625316E1,3.5091053E1,3.3958435E1,1.7028946E1,1.4068527E1,1.0399384E1,1.1592529E1,2.086145E1,4.8198753E1,2.0682953E1,1.9676727E1,2.7167786E1,7.2330933E0,4.2496567E0,5.8565063E0,1.1635895E1,1.6253647E1,5.555298E0,7.4984283E0,2.7423294E1,1.5417366E1,4.343872E0,3.765741E1,5.762474E0,3.6909492E1,3.9688526E1,2.2612839E1,2.2141357E1,0E0,0E0,0E0,0E0,0E0,0E0,0E0,0E0,0E0,0E0,0E0,0E0,0E0,0E0,0E0,0E0,0E0,0E0,0E0,0E0,0E0,0E0,0E0,0E0,0E0,0E0,0E0,0E0,0E0,0E0,0E0,0E0,0E0,0E0,0E0,0E0,0E0,0E0,0E0,0E0,0E0,0E0,0E0,0E0,0E0,0E0,0E0,0E0,0E0,0E0,0E0,0E0,0E0,0E0,0E0,0E0,0E0,0E0,0E0,0E0,0E0,0E0],"parents":[2147483647,0,0,1,1,2,2,3,3,4,4,5,5,6,6,7,7,8,8,9,9,10,10,11,11,12,12,13,13,14,14,15,15,16,16,17,17,18,18,19,19,20,20,21,21,22,22,23,23,24,24,25,25,26,26,27,27,28,28,29,29,30,30,31,31,33,33,34,34,35,35,36,36,37,37,38,38,39,39,40,40,41,41,42,42,43,43,44,44,45,45,46,46,47,47,48,48,49,49,50,50,51,51,52,52,53,53,54,54,55,55,56,56,57,57,58,58,59,59,60,60,61,61,62,62],"right_children":[2,4,6,8,10,12,14,16,18,20,22,24,26,28,30,32,34,36,38,40,42,44,46,48,50,52,54,56,58,60,62,64,-1,66,68,70,72,74,76,78,80,82,84,86,88,90,92,94,96,98,100,102,104,106,108,110,112,114,116,118,120,122,124,-1,-1,-1,-1,-1,-1,-1,-1,-1,-1,-1,-1,-1,-1,-1,-1,-1,-1,-1,-1,-1,-1,-1,-1,-1,-1,-1,-1,-1,-1,-1,-1,-1,-1,-1,-1,-1,-1,-1,-1,-1,-1,-1,-1,-1,-1,-1,-1,-1,-1,-1,-1,-1,-1,-1,-1,-1,-1,-1,-1,-1,-1],"split_conditions":[4E0,7.1780145E-2,-7.3E2,1E0,1.2E1,-1.8258259E-1,-2.6131554E-2,-2.26E2,-5.726759E-2,1.9233172E-1,6.8E2,-5.585E3,-1.14529915E-1,1.2E1,8.2E1,3E0,2.2E1,6E0,1.8181819E-1,1.1205008E-1,3.164557E-3,2.6128838E-2,7.1E2,1.615E3,-1.6533333E-1,2.5176057E-1,7E0,6.3E1,3.2E2,8.510638E-2,-3.3E1,2.8E1,-1.5747002E-1,2.5396827E-1,1E0,5.6E1,-1.3706249E-1,-4.1E1,6.557377E-2,4E0,1.2562814E-1,4.056E3,-8.448276E-2,7.8431375E-2,3.07E2,5E0,1.4444445E-1,8.629606E-2,1E0,5E0,1.576087E-1,2.0275623E-2,1.3029827E-1,2.0754717E-1,-1.771E3,1.923077E-1,3E0,-1.8156227E-1,2.7272728E-1,1.8181819E-1,-2.631579E-2,8.053691E-2,2.0833334E-2,2.4231252E-1,3.2878873E-1,3.052923E-1,4.2875167E-2,-3.49412E-1,1.329394E-1,1.4440746E-2,1.3746628E-1,-1.1557595E-1,-1.88857E-2,8.3868586E-2,2.1405812E-2,1.3654163E-2,1.6536272E-1,1.7362508E-1,9.397417E-2,1.6515394E-1,2.6824307E-1,1.4911038E-1,2.7223033E-1,-1.02309585E-1,2.9264894E-1,-1.4809357E-1,5.6095704E-2,1.1679855E-1,-8.175619E-2,1.7078003E-1,2.5934047E-1,4.2689905E-2,1.6848147E-1,-3.507083E-1,1.2001588E-1,1.10315606E-1,-2.2284585E-1,-2.5862277E-1,-3.3742887E-1,-2.2412212E-1,-1.5366778E-1,-1.9121163E-1,-2.6175054E-3,-2.862324E-1,2.0594509E-1,-2.7876726E-1,-1.5997271E-1,-1.4230195E-1,-7.150738E-2,-1.8338056E-1,1.7503363E-1,1.7892575E-1,-2.9654217E-1,-1.3443805E-1,-7.208785E-2,-1.2904687E-1,-2.9111677E-1,1.3187144E-2,1.9497734E-1,-4.4138495E-2,1.7759243E-2,-9.335241E-2,-2.1505913E-1,-8.0050185E-2,5.450154E-2],"split_indices":[3,40,6,12,1,40,42,3,42,40,6,6,42,2,3,10,1,11,42,42,42,42,5,4,42,17,9,3,3,16,41,9,0,17,36,7,40,3,15,37,17,6,44,15,9,0,40,44,37,0,24,44,40,24,6,27,10,42,34,15,40,28,19,0,0,0,0,0,0,0,0,0,0,0,0,0,0,0,0,0,0,0,0,0,0,0,0,0,0,0,0,0,0,0,0,0,0,0,0,0,0,0,0,0,0,0,0,0,0,0,0,0,0,0,0,0,0,0,0,0,0,0,0,0,0],"split_type":[0,0,0,0,0,0,0,0,0,0,0,0,0,0,0,0,0,0,0,0,0,0,0,0,0,0,0,0,0,0,0,0,0,0,0,0,0,0,0,0,0,0,0,0,0,0,0,0,0,0,0,0,0,0,0,0,0,0,0,0,0,0,0,0,0,0,0,0,0,0,0,0,0,0,0,0,0,0,0,0,0,0,0,0,0,0,0,0,0,0,0,0,0,0,0,0,0,0,0,0,0,0,0,0,0,0,0,0,0,0,0,0,0,0,0,0,0,0,0,0,0,0,0,0,0],"sum_hessian":[3.0820746E4,1.6106365E4,1.4714381E4,7.5551104E3,8.551255E3,4.88996E3,9.824421E3,3.9517343E2,7.159937E3,2.6154988E3,5.935756E3,1.8700016E3,3.0199583E3,4.6911265E3,5.1332944E3,1.7843965E2,2.1673376E2,2.7534666E3,4.4064707E3,1.2192144E3,1.3962844E3,4.116829E3,1.8189269E3,3.9807318E2,1.4719285E3,6.715487E2,2.3484094E3,4.9240234E2,4.198724E3,4.1406235E3,9.926709E2,1.7727518E2,1.1644739E0,3.8024746E1,1.7870901E2,3.9110126E2,2.3623652E3,3.93025E3,4.7622058E2,8.277935E2,3.9142087E2,3.0280527E2,1.0934791E3,1.5940968E3,2.5227322E3,1.2000137E3,6.1891327E2,3.2642334E2,7.1649864E1,5.140802E2,9.5784827E2,4.9981674E2,1.7173195E2,2.1705035E2,2.1313591E3,3.1574426E2,1.766581E2,4.0473123E3,1.5141179E2,4.0754327E2,3.73308E3,5.540478E2,4.386231E2,6.2249947E1,1.1502524E2,3.1550829E1,6.4739175E0,1.6907042E0,1.7701831E2,1.7405742E2,2.1704384E2,4.0753754E2,1.9548278E3,1.0797568E3,2.8504932E3,8.023942E1,3.9598117E2,4.7690833E2,3.5088522E2,1.4982814E2,2.4159273E2,1.8986432E2,1.12940956E2,1.1716124E1,1.0817631E3,1.1093484E2,1.483162E3,2.4752612E3,4.747109E1,8.899111E2,3.1010257E2,3.0974652E2,3.0916675E2,3.2390692E2,2.5164058E0,3.050592E0,6.859927E1,3.8481265E2,1.2926752E2,6.208237E2,3.3702454E2,4.5457675E2,4.5239986E1,1.7031015E2,1.4217998E0,1.3442761E2,8.2622734E1,7.7724054E2,1.3541187E3,3.0530396E2,1.0440313E1,1.1311023E0,1.75527E2,1.2751432E3,2.772169E3,2.62079E1,1.25203896E2,2.2943518E2,1.781081E2,1.9391356E3,1.7939446E3,2.7566058E2,2.783872E2,2.2503278E2,2.1359033E2],"tree_param":{"num_deleted":"0","num_feature":"45","num_nodes":"125","size_leaf_vector":"1"}},{"base_weights":[-1.2681778E-5,2.6236477E-1,-2.1218908E-1,1.24057464E-1,4.133968E-1,-3.6087787E-1,-6.148516E-2,3.2252964E-1,6.278496E-2,2.9355717E-1,5.862155E-1,-7.0327044E-1,-3.0224428E-1,-5.8435184E-1,-3.6211386E-2,3.5531175E-1,-2.1108216E-1,-8.84992E-2,1.2812395E-1,6.574957E-1,2.4616902E-1,4.811883E-1,8.1671834E-1,-9.054854E-1,-5.889822E-1,-2.0775096E-1,-4.2465794E-1,-3.7857187E-1,-8.45681E-1,-9.742427E-2,1.17338814E-1,4.528495E-1,1.7162824E-1,8.36144E-1,-3.823678E-1,-4.889544E-1,-4.5107365E-2,-6.546711E-2,1.8023711E-1,7.550776E-1,2.9580727E-1,1.3155931E-1,3.4635413E-1,1.2680186E-1,5.2456635E-1,7.1907955E-1,1.022073E0,-9.251827E-1,3.3391383E-1,-4.74258E-1,-8.4250635E-1,-2.7013373E-1,-1.810156E-2,-2.574578E-1,-5.4912746E-1,-1.7669393E-1,-5.379035E-1,-8.58989E-1,1.7463209E-1,-3.507793E-1,-7.181284E-2,-2.1832559E-1,1.7989258E-1,2.1271177E-1,1.106233E-1,2.3646072E-2,1.9930555E-1,3.0302125E-1,-1.4294006E-1,-2.099802E-1,4.4179235E-2,3.5005862E-1,-1.5827318E-1,4.9396463E-2,-3.0082954E-2,2.837968E-2,-6.181706E-2,7.254501E-2,3.5599752E-3,2.3680963E-1,4.462613E-2,2.6005343E-2,2.566411E-1,2.7828733E-2,1.6360039E-1,7.288619E-2,1.5092607E-1,-8.982785E-2,1.1289298E-1,2.1777762E-1,1.3684447E-1,2.71719E-1,1.7833564E-1,6.6949464E-2,3.106596E-1,-3.163434E-1,-2.3038025E-1,-1.7730033E-1,3.5610062E-1,-1.7093866E-1,-6.5695345E-2,-2.776023E-1,-5.832846E-2,-5.1609665E-2,-1.1575486E-1,4.6323303E-2,-4.583495E-2,-1.9026222E-2,-1.0196865E-1,-1.4536972E-1,-2.2230737E-1,-2.1271601E-1,1.2496238E-2,-1.1953104E-1,-3.024719E-1,-1.9602233E-1,-2.892474E-1,-7.379022E-2,-1.91701E-1,-5.7990715E-2,-6.1044972E-3,-4.7244751E-4,-1.167998E-1,-1.4873127E-2,7.1569376E-2],"categories":[],"categories_nodes":[],"categories_segments":[],"categories_sizes":[],"default_left":[0,0,0,0,0,0,0,0,0,0,0,0,0,0,0,0,0,0,0,0,0,0,0,0,0,0,0,0,0,0,0,0,0,0,0,0,0,0,0,0,0,0,0,0,0,0,0,0,0,0,0,0,0,0,0,0,0,0,0,0,0,0,0,0,0,0,0,0,0,0,0,0,0,0,0,0,0,0,0,0,0,0,0,0,0,0,0,0,0,0,0,0,0,0,0,0,0,0,0,0,0,0,0,0,0,0,0,0,0,0,0,0,0,0,0,0,0,0,0,0,0,0,0,0,0],"id":3,"left_children":[1,3,5,7,9,11,13,15,17,19,21,23,25,27,29,31,33,35,37,39,41,43,45,47,49,51,53,55,57,59,61,63,65,67,69,71,73,75,77,79,81,83,85,87,89,91,93,95,97,99,101,103,105,107,109,111,113,115,-1,117,119,121,123,-1,-1,-1,-1,-1,-1,-1,-1,-1,-1,-1,-1,-1,-1,-1,-1,-1,-1,-1,-1,-1,-1,-1,-1,-1,-1,-1,-1,-1,-1,-1,-1,-1,-1,-1,-1,-1,-1,-1,-1,-1,-1,-1,-1,-1,-1,-1,-1,-1,-1,-1,-1,-1,-1,-1,-1,-1,-1,-1,-1,-1,-1],"loss_changes":[1.669971E3,2.8011194E2,3.7162366E2,8.513518E1,1.3259692E2,1.6738574E2,1.08843765E2,2.896614E1,5.2912693E1,6.5160675E1,6.3133728E1,2.7658264E1,8.238031E1,2.010292E1,7.388313E1,2.7806381E1,1.7579006E1,2.8038063E1,3.772293E1,1.5156616E1,3.8452423E1,2.7683105E1,1.5705688E1,1.1016937E1,2.2351685E1,4.7620804E1,6.44762E1,6.79743E0,3.66362E0,3.6440235E1,4.7084435E1,2.1629211E1,2.470591E1,3.640749E0,1.4127001E1,1.0705322E1,1.6889803E1,1.787722E1,3.0535896E1,7.003708E0,1.0954561E1,2.507994E1,2.8860764E1,2.1188293E1,2.1821075E1,1.2467255E1,2.5844727E0,7.973938E0,6.6954765E0,1.3064774E1,1.2833267E1,3.431938E1,2.3199125E1,2.1203552E1,2.168158E1,1.1189688E1,7.4220314E0,2.945282E0,0E0,1.5421249E1,3.191506E1,1.3061707E1,2.5446281E1,0E0,0E0,0E0,0E0,0E0,0E0,0E0,0E0,0E0,0E0,0E0,0E0,0E0,0E0,0E0,0E0,0E0,0E0,0E0,0E0,0E0,0E0,0E0,0E0,0E0,0E0,0E0,0E0,0E0,0E0,0E0,0E0,0E0,0E0,0E0,0E0,0E0,0E0,0E0,0E0,0E0,0E0,0E0,0E0,0E0,0E0,0E0,0E0,0E0,0E0,0E0,0E0,0E0,0E0,0E0,0E0,0E0,0E0,0E0,0E0,0E0,0E0],"parents":[2147483647,0,0,1,1,2,2,3,3,4,4,5,5,6,6,7,7,8,8,9,9,10,10,11,11,12,12,13,13,14,14,15,15,16,16,17,17,18,18,19,19,20,20,21,21,22,22,23,23,24,24,25,25,26,26,27,27,28,28,29,29,30,30,31,31,32,32,33,33,34,34,35,35,36,36,37,37,38,38,39,39,40,40,41,41,42,42,43,43,44,44,45,45,46,46,47,47,48,48,49,49,50,50,51,51,52,52,53,53,54,54,55,55,56,56,57,57,59,59,60,60,61,61,62,62],"right_children":[2,4,6,8,10,12,14,16,18,20,22,24,26,28,30,32,34,36,38,40,42,44,46,48,50,52,54,56,58,60,62,64,66,68,70,72,74,76,78,80,82,84,86,88,90,92,94,96,98,100,102,104,106,108,110,112,114,116,-1,118,120,122,124,-1,-1,-1,-1,-1,-1,-1,-1,-1,-1,-1,-1,-1,-1,-1,-1,-1,-1,-1,-1,-1,-1,-1,-1,-1,-1,-1,-1,-1,-1,-1,-1,-1,-1,-1,-1,-1,-1,-1,-1,-1,-1,-1,-1,-1,-1,-1,-1,-1,-1,-1,-1,-1,-1,-1,-1,-1,-1,-1,-1,-1,-1],"split_conditions":[-7E0,5.4444444E-1,-7.175413E-2,-9.5E1,1.8263409E-1,-2.54E3,1E0,9.677419E-2,-6.231743E-2,-9.8E1,2.233E3,-1.3623188E-1,5.6E1,2.26E2,9.6287474E-2,7.7E1,9E0,6.1728396E-2,-3.846154E-2,4.587156E-2,1.6666668E-2,2.8E1,5E0,1.7391305E-1,5E0,1.9174041E-2,5.3846157E-1,4.4615385E-1,3E0,-1.8156227E-1,6E0,-2.48E2,5.55E2,1.6767654E-1,8.219178E-2,1.9E1,7.575758E-2,2.3076923E-1,6.8E1,2.5668448E-1,1.3636364E-1,6.1294764E-2,9.6E1,3E0,-1.01E2,3.9577838E-2,4.2352942E-1,-1.6767654E-1,3E0,1.45E3,2.37E3,5.6E1,4.5614034E-1,3.2E1,5E0,9E0,6.153846E-2,2.8E1,1.7463209E-1,1.0309278E-2,-3.98E2,5.7E1,1.3793103E-1,2.1271177E-1,1.106233E-1,2.3646072E-2,1.9930555E-1,3.0302125E-1,-1.4294006E-1,-2.099802E-1,4.4179235E-2,3.5005862E-1,-1.5827318E-1,4.9396463E-2,-3.0082954E-2,2.837968E-2,-6.181706E-2,7.254501E-2,3.5599752E-3,2.3680963E-1,4.462613E-2,2.6005343E-2,2.566411E-1,2.7828733E-2,1.6360039E-1,7.288619E-2,1.5092607E-1,-8.982785E-2,1.1289298E-1,2.1777762E-1,1.3684447E-1,2.71719E-1,1.7833564E-1,6.6949464E-2,3.106596E-1,-3.163434E-1,-2.3038025E-1,-1.7730033E-1,3.5610062E-1,-1.7093866E-1,-6.5695345E-2,-2.776023E-1,-5.832846E-2,-5.1609665E-2,-1.1575486E-1,4.6323303E-2,-4.583495E-2,-1.9026222E-2,-1.0196865E-1,-1.4536972E-1,-2.2230737E-1,-2.1271601E-1,1.2496238E-2,-1.1953104E-1,-3.024719E-1,-1.9602233E-1,-2.892474E-1,-7.379022E-2,-1.91701E-1,-5.7990715E-2,-6.1044972E-3,-4.7244751E-4,-1.167998E-1,-1.4873127E-2,7.1569376E-2],"split_indices":[3,13,40,3,40,6,9,30,42,3,6,42,3,3,42,1,10,15,44,26,42,8,0,25,0,42,14,14,7,42,8,3,2,44,27,1,16,16,1,23,31,43,12,41,3,23,33,44,37,4,4,9,34,11,0,12,20,12,0,22,6,10,15,0,0,0,0,0,0,0,0,0,0,0,0,0,0,0,0,0,0,0,0,0,0,0,0,0,0,0,0,0,0,0,0,0,0,0,0,0,0,0,0,0,0,0,0,0,0,0,0,0,0,0,0,0,0,0,0,0,0,0,0,0,0],"split_type":[0,0,0,0,0,0,0,0,0,0,0,0,0,0,0,0,0,0,0,0,0,0,0,0,0,0,0,0,0,0,0,0,0,0,0,0,0,0,0,0,0,0,0,0,0,0,0,0,0,0,0,0,0,0,0,0,0,0,0,0,0,0,0,0,0,0,0,0,0,0,0,0,0,0,0,0,0,0,0,0,0,0,0,0,0,0,0,0,0,0,0,0,0,0,0,0,0,0,0,0,0,0,0,0,0,0,0,0,0,0,0,0,0,0,0,0,0,0,0,0,0,0,0,0,0],"sum_hessian":[2.9995518E4,1.3411104E4,1.6584414E4,7.001403E3,6.4097007E3,8.347317E3,8.237097E3,1.650591E3,5.350812E3,3.7866086E3,2.623092E3,1.2188448E3,7.1284727E3,3.787779E2,7.8583193E3,1.5553718E3,9.521916E1,1.6138325E3,3.7369795E3,4.3476462E2,3.351844E3,1.8041364E3,8.189558E2,4.3762085E2,7.81224E2,4.0245483E3,3.1039243E3,2.1328123E2,1.6549664E2,5.6187617E3,2.2395574E3,1.01495514E3,5.404166E2,1.2839282E1,8.2379875E1,1.5676933E2,1.4570632E3,7.9254816E2,2.9444312E3,3.4153293E2,9.323171E1,1.564454E3,1.7873899E3,1.9717725E2,1.6069591E3,5.581006E2,2.6085522E2,4.310243E2,6.5965757E0,5.398175E2,2.4140648E2,3.0280764E3,9.96472E2,1.3259037E3,1.7780206E3,9.5009865E1,1.1827137E2,1.6436305E2,1.133601E0,5.146832E2,5.1040786E3,3.514079E2,1.8881495E3,2.4901361E2,7.659415E2,4.5573557E2,8.4681076E1,1.1540589E1,1.2986927E0,5.1299347E1,3.108053E1,2.9075313E0,1.538618E2,3.0300467E2,1.1540586E3,3.7075668E2,4.217915E2,2.155607E3,7.888244E2,3.229671E2,1.856581E1,6.871184E1,2.4519873E1,1.43146E3,1.32994E2,1.0784572E3,7.0893286E2,7.273163E1,1.2444561E2,4.051034E2,1.2018557E3,2.2093933E2,3.3716125E2,4.612979E0,2.5624225E2,2.3340482E2,1.9761946E2,3.312451E0,3.2841249E0,3.9191074E2,1.479068E2,2.1366847E2,2.7738008E1,1.6401101E3,1.3879662E3,4.36814E2,5.5965796E2,3.9587814E2,9.300255E2,1.3330537E3,4.4496686E2,2.6980568E1,6.80293E1,9.2646454E1,2.5624916E1,5.8067432E1,1.06295616E2,3.787905E2,1.3589278E2,1.5179586E3,3.5861199E3,1.5542128E2,1.9598662E2,3.845004E2,1.5036492E3],"tree_param":{"num_deleted":"0","num_feature":"45","num_nodes":"125","size_leaf_vector":"1"}},{"base_weights":[-1.407314E-5,1.486787E-1,-2.0732065E-1,4.2853497E-2,2.783177E-1,-4.6718353E-1,-1.4970244E-1,-6.2817954E-3,1.9310819E-1,2.3366497E-1,5.953875E-1,-3.6006355E-1,-6.7774814E-1,-1.15065336E-1,-3.936529E-1,-2.0149069E-1,2.5437096E-2,1.4855163E-1,4.3325132E-1,1.72291E-1,4.1539472E-1,4.6857968E-1,8.1411093E-1,-6.404849E-1,-2.775643E-1,-6.901226E-1,1.103108E0,-1.6311719E-1,5.7394158E-2,-1.1083772E-1,-4.8770308E-1,5.498933E-2,-3.1167126E-1,3.6571003E-2,-4.7649172E-1,1.2133754E-1,5.0775534E-1,6.072631E-1,1.2137058E-1,2.3090993E-1,2.979197E-2,2.1418785E-1,4.740898E-1,6.5894836E-1,2.9259595E-1,8.3623385E-1,-7.108586E-1,-5.4725033E-1,-9.62588E-1,-2.183393E-1,-6.028697E-1,-2.0043977E-1,-7.248887E-1,5.186172E-1,-5.6426387E-2,-2.0257302E-1,5.981752E-3,3.056289E-1,2.2252582E-2,-1.6741824E-1,1.0764216E0,-5.7709694E-1,-3.2334074E-1,-5.4027263E-2,6.756375E-2,2.4407618E-3,-1.1555139E-1,3.0890841E-2,-1.0424836E-2,-1.7116892E-1,1.5252602E-1,1.1109824E-1,2.3308761E-2,1.723527E-1,-2.1530958E-1,-3.7543073E-2,2.0728426E-1,1.3433301E-1,-3.5052504E-2,8.393803E-3,8.254538E-2,-6.836096E-2,2.8523285E-2,1.8753606E-1,3.665102E-2,1.2449927E-1,2.1598056E-1,2.080124E-1,-1.4082243E-1,3.833506E-2,1.7224574E-1,1.9592257E-1,2.826476E-1,-5.6389505E-1,1.8810241E-1,-1.7593609E-1,7.374744E-2,-3.052807E-1,1.2349721E-1,-1.4623596E-1,-4.4717647E-2,-1.9161652E-1,7.056043E-2,-1.4425737E-1,1.7465405E-1,-1.739935E-1,-2.509994E-1,-7.3477775E-2,-1.0410907E-2,3.1261276E-2,-2.5273653E-2,1.4413748E-2,1.5817098E-1,-6.7658825E-3,6.5157406E-2,-1.2266237E-1,2.5822616E-3,4.5620418E-1,9.46321E-2,-1.92744E-1,-9.067032E-2,-5.1188074E-2,-1.628435E-1],"categories":[],"categories_nodes":[],"categories_segments":[],"categories_sizes":[],"default_left":[0,0,0,0,0,0,0,0,0,0,0,0,0,0,0,0,0,0,0,0,0,0,0,0,0,0,0,0,0,0,0,0,0,0,0,0,0,0,0,0,0,0,0,0,0,0,0,0,0,0,0,0,0,0,0,0,0,0,0,0,0,0,0,0,0,0,0,0,0,0,0,0,0,0,0,0,0,0,0,0,0,0,0,0,0,0,0,0,0,0,0,0,0,0,0,0,0,0,0,0,0,0,0,0,0,0,0,0,0,0,0,0,0,0,0,0,0,0,0,0,0,0,0],"id":4,"left_children":[1,3,5,7,9,11,13,15,17,19,21,23,25,27,29,31,33,35,37,39,41,43,45,47,49,51,53,55,57,59,61,63,65,67,69,71,73,75,77,79,81,83,85,87,89,91,93,95,97,99,101,103,105,-1,-1,107,109,111,113,115,117,119,121,-1,-1,-1,-1,-1,-1,-1,-1,-1,-1,-1,-1,-1,-1,-1,-1,-1,-1,-1,-1,-1,-1,-1,-1,-1,-1,-1,-1,-1,-1,-1,-1,-1,-1,-1,-1,-1,-1,-1,-1,-1,-1,-1,-1,-1,-1,-1,-1,-1,-1,-1,-1,-1,-1,-1,-1,-1,-1,-1,-1],"loss_changes":[9.020277E2,2.3376715E2,1.8293451E2,6.927483E1,1.082879E2,4.97782E1,8.4500336E1,4.379241E1,2.4677025E1,7.481961E1,2.5821533E1,3.3877716E1,1.7215485E1,7.262916E1,3.302446E1,2.7953415E1,3.4018723E1,1.9019295E1,1.9537659E1,4.193544E1,1.990979E1,1.992099E1,1.2245636E1,9.499573E0,2.1816376E1,1.2488831E1,4.798121E0,4.5729248E1,1.665757E1,2.11154E1,1.3521362E1,1.1961938E1,1.6261208E1,2.8195023E1,1.2529823E1,1.9702063E1,1.1631977E1,1.4287415E1,1.02118845E1,3.193132E1,2.4659245E1,1.4462519E1,1.8746399E1,1.149749E1,1.4487078E1,5.9980927E0,9.745999E0,8.266319E0,5.985405E0,1.792485E1,5.4050827E0,1.1379831E1,1.0732178E1,0E0,0E0,3.9501755E1,1.1508717E1,1.3492933E1,1.46305E1,1.2683601E1,4.3584843E0,1.0642914E1,1.0999233E1,0E0,0E0,0E0,0E0,0E0,0E0,0E0,0E0,0E0,0E0,0E0,0E0,0E0,0E0,0E0,0E0,0E0,0E0,0E0,0E0,0E0,0E0,0E0,0E0,0E0,0E0,0E0,0E0,0E0,0E0,0E0,0E0,0E0,0E0,0E0,0E0,0E0,0E0,0E0,0E0,0E0,0E0,0E0,0E0,0E0,0E0,0E0,0E0,0E0,0E0,0E0,0E0,0E0,0E0,0E0,0E0,0E0,0E0,0E0,0E0],"parents":[2147483647,0,0,1,1,2,2,3,3,4,4,5,5,6,6,7,7,8,8,9,9,10,10,11,11,12,12,13,13,14,14,15,15,16,16,17,17,18,18,19,19,20,20,21,21,22,22,23,23,24,24,25,25,26,26,27,27,28,28,29,29,30,30,31,31,32,32,33,33,34,34,35,35,36,36,37,37,38,38,39,39,40,40,41,41,42,42,43,43,44,44,45,45,46,46,47,47,48,48,49,49,50,50,51,51,52,52,55,55,56,56,57,57,58,58,59,59,60,60,61,61,62,62],"right_children":[2,4,6,8,10,12,14,16,18,20,22,24,26,28,30,32,34,36,38,40,42,44,46,48,50,52,54,56,58,60,62,64,66,68,70,72,74,76,78,80,82,84,86,88,90,92,94,96,98,100,102,104,106,-1,-1,108,110,112,114,116,118,120,122,-1,-1,-1,-1,-1,-1,-1,-1,-1,-1,-1,-1,-1,-1,-1,-1,-1,-1,-1,-1,-1,-1,-1,-1,-1,-1,-1,-1,-1,-1,-1,-1,-1,-1,-1,-1,-1,-1,-1,-1,-1,-1,-1,-1,-1,-1,-1,-1,-1,-1,-1,-1,-1,-1,-1,-1,-1,-1,-1,-1],"split_conditions":[1.2E1,5.7971016E-2,1.1E1,5.56E2,2.54E3,7.1875E-1,1.51E2,-1.8156227E-1,5E0,1.7122132E-1,1.3114181E-1,-1.4163886E-1,8.82353E-2,3.846154E-2,4.047619E-1,8E0,3.86E2,2E-1,9.51E2,-2E1,3.968254E-1,5.9322033E-2,1.7391305E-1,5E0,1.07E2,1.4925373E-2,2.0689656E-1,6.6E1,8.888889E-2,8.490566E-2,-5.6E1,1E0,6.1728396E-2,4.7058824E-2,7.85E2,1.2E1,1.2345679E-1,1.077E3,7.079646E-2,1.0989011E-2,1.8181819E-1,-2.48E2,5E0,2.655E3,5.585E3,1.6767654E-1,1.6E1,-3.1364214E-2,7.4270554E-2,7E0,2.5773194E-1,7.042254E-2,3.8E1,5.186172E-1,-5.6426387E-2,6.0606062E-2,3.9E1,1.6216215E-1,2.4137931E-2,3E0,5.376344E-2,1.8E2,2.78E2,-5.4027263E-2,6.756375E-2,2.4407618E-3,-1.1555139E-1,3.0890841E-2,-1.0424836E-2,-1.7116892E-1,1.5252602E-1,1.1109824E-1,2.3308761E-2,1.723527E-1,-2.1530958E-1,-3.7543073E-2,2.0728426E-1,1.3433301E-1,-3.5052504E-2,8.393803E-3,8.254538E-2,-6.836096E-2,2.8523285E-2,1.8753606E-1,3.665102E-2,1.2449927E-1,2.1598056E-1,2.080124E-1,-1.4082243E-1,3.833506E-2,1.7224574E-1,1.9592257E-1,2.826476E-1,-5.6389505E-1,1.8810241E-1,-1.7593609E-1,7.374744E-2,-3.052807E-1,1.2349721E-1,-1.4623596E-1,-4.4717647E-2,-1.9161652E-1,7.056043E-2,-1.4425737E-1,1.7465405E-1,-1.739935E-1,-2.509994E-1,-7.3477775E-2,-1.0410907E-2,3.1261276E-2,-2.5273653E-2,1.4413748E-2,1.5817098E-1,-6.7658825E-3,6.5157406E-2,-1.2266237E-1,2.5822616E-3,4.5620418E-1,9.46321E-2,-1.92744E-1,-9.067032E-2,-5.1188074E-2,-1.628435E-1],"split_indices":[3,44,2,6,6,14,3,42,0,42,42,42,22,44,14,12,8,42,5,3,33,30,26,0,1,20,18,2,16,29,41,38,16,20,8,12,26,4,30,19,15,3,0,5,6,44,2,40,21,35,24,32,3,0,0,42,12,15,21,7,28,12,3,0,0,0,0,0,0,0,0,0,0,0,0,0,0,0,0,0,0,0,0,0,0,0,0,0,0,0,0,0,0,0,0,0,0,0,0,0,0,0,0,0,0,0,0,0,0,0,0,0,0,0,0,0,0,0,0,0,0,0,0],"split_type":[0,0,0,0,0,0,0,0,0,0,0,0,0,0,0,0,0,0,0,0,0,0,0,0,0,0,0,0,0,0,0,0,0,0,0,0,0,0,0,0,0,0,0,0,0,0,0,0,0,0,0,0,0,0,0,0,0,0,0,0,0,0,0,0,0,0,0,0,0,0,0,0,0,0,0,0,0,0,0,0,0,0,0,0,0,0,0,0,0,0,0,0,0,0,0,0,0,0,0,0,0,0,0,0,0,0,0,0,0,0,0,0,0,0,0,0,0,0,0,0,0,0,0],"sum_hessian":[2.9260871E4,1.703944E4,1.2221431E4,9.382098E3,7.6573413E3,2.2167217E3,1.0004709E4,7.0708076E3,2.3112903E3,6.7136055E3,9.437356E2,1.4710621E3,7.456596E2,8.762101E3,1.2426084E3,9.8757587E2,6.0832314E3,1.9509302E3,3.6036026E2,5.0201445E3,1.6934609E3,5.993797E2,3.4435596E2,3.32865E2,1.1381971E3,7.411223E2,4.5372744E0,6.852785E3,1.9093158E3,3.10648E2,9.3196045E2,2.9691455E2,6.906613E2,5.9521274E3,1.311044E2,1.8147764E3,1.361538E2,2.3069722E2,1.2966304E2,3.5565066E3,1.4636381E3,3.834936E2,1.3099674E3,2.8660413E2,3.1277554E2,3.3987695E2,4.4790015E0,2.602369E2,7.262808E1,9.6430695E2,1.738902E2,4.9577988E1,6.915443E2,2.8281245E0,1.70915E0,5.5561675E3,1.2966178E3,2.3582027E2,1.6734955E3,2.97337E2,1.3311027E1,6.0202075E2,3.2993967E2,1.2467666E2,1.722379E2,1.2923486E2,5.6142645E2,3.0821965E3,2.8699307E3,1.2005805E2,1.1046348E1,2.6953067E2,1.5452457E3,1.2962402E2,6.5297627E0,2.3605568E1,2.0709164E2,5.4333626E1,7.532942E1,6.368715E2,2.919635E3,2.9537924E2,1.1682589E3,6.910254E1,3.1439105E2,1.0582828E3,2.5168451E2,2.7849277E2,8.111346E0,1.9820674E2,1.1456881E2,1.27161896E2,2.1271504E2,2.1744184E0,2.3045833E0,2.4822708E2,1.2009834E1,7.0082054E1,2.546025E0,1.9618965E2,7.681173E2,1.6698459E2,6.905608E0,3.678371E1,1.2794277E1,3.038329E2,3.8771146E2,4.4364185E3,1.1197487E3,6.207294E2,6.758884E2,1.09620735E2,1.2619954E2,1.361457E3,3.1203854E2,1.2481045E2,1.7252655E2,7.77417E0,5.5368567E0,4.8525345E2,1.1676732E2,1.9560785E2,1.3433182E2],"tree_param":{"num_deleted":"0","num_feature":"45","num_nodes":"123","size_leaf_vector":"1"}},{"base_weights":[-2.4108986E-5,9.7036466E-2,-1.713267E-1,5.8836743E-2,3.2021362E-1,-7.763486E-2,-2.7945623E-1,-5.4765465E-3,1.5910807E-1,2.4899107E-1,5.7713234E-1,-5.6058872E-2,-3.3558527E-1,-5.2554864E-1,-2.2449858E-1,1.6651754E-1,-3.5317242E-2,2.7831054E-1,1.0951505E-1,1.9533914E-1,5.303074E-1,1.8989755E-1,6.22052E-1,-8.183646E-2,1.5902397E-1,-5.26781E-1,-1.5751018E-1,-7.7318317E-1,-4.2892832E-1,-1.7633612E-1,-4.4041854E-1,1.15723476E-1,5.283603E-1,-5.554619E-1,-2.7505398E-2,5.2403367E-1,2.156935E-1,7.560449E-2,2.9073772E-1,2.5637677E-1,3.801404E-2,3.8550553E-1,8.297345E-1,-1.3129664E-2,1.0619726E0,5.5672455E-1,8.13213E-1,-9.982521E-2,2.2349522E-1,1.0687215E0,1.3327271E-1,-5.531774E-1,6.092707E-1,-2.624405E-1,3.9764497E-1,-5.5899954E-1,-9.026282E-1,-5.325084E-1,-2.559948E-1,-2.2029868E-1,2.6662333E-2,-4.7945058E-1,2.0661158E-3,-6.2306924E-3,6.655644E-2,2.8373006E-1,1.3688532E-1,-1.8808234E-1,1.5122057E-1,-7.6734705E-4,-5.610091E-2,1.1988042E-1,2.0775785E-1,5.542018E-2,2.1810691E-1,-4.6405368E-2,2.9408542E-2,6.407189E-2,1.9779006E-1,5.856669E-2,1.3464475E-1,1.9982899E-2,-2.826933E-1,-1.2460408E-1,1.3168901E-1,2.6675427E-1,1.2047367E-2,4.6156712E-2,-2.4636011E-1,3.6568072E-1,-6.832543E-2,1.8714616E-1,9.876735E-2,-1.508473E-1,2.512278E-1,-2.2400908E-2,-8.872204E-2,-1.9064121E-2,1.2325356E-1,4.2818508E-1,-1.8040255E-1,-5.7762973E-3,9.125871E-2,-1.2133571E-1,-2.1597622E-1,4.6784133E-1,-1.1444867E-1,-1.5238039E-1,-1.98743E-2,2.0220946E-1,-1.5418142E-1,-7.1353093E-3,-1.9141991E-1,-2.7550504E-1,1.7117435E-1,-1.2134688E-1,-2.3511894E-1,-1.6030374E-1,-1.495983E-2,-5.3042922E-2,-1.1647299E-1,1.682696E-2,-2.6537675E-1,-1.6327839E-1,-3.780783E-2,3.451672E-1,-5.2115645E-2],"categories":[],"categories_nodes":[],"categories_segments":[],"categories_sizes":[],"default_left":[0,0,0,0,0,0,0,0,0,0,0,0,0,0,0,0,0,0,0,0,0,0,0,0,0,0,0,0,0,0,0,0,0,0,0,0,0,0,0,0,0,0,0,0,0,0,0,0,0,0,0,0,0,0,0,0,0,0,0,0,0,0,0,0,0,0,0,0,0,0,0,0,0,0,0,0,0,0,0,0,0,0,0,0,0,0,0,0,0,0,0,0,0,0,0,0,0,0,0,0,0,0,0,0,0,0,0,0,0,0,0,0,0,0,0,0,0,0,0,0,0,0,0,0,0,0,0],"id":5,"left_children":[1,3,5,7,9,11,13,15,17,19,21,23,25,27,29,31,33,35,37,39,41,43,45,47,49,51,53,55,57,59,61,63,65,67,69,71,73,75,77,79,81,83,85,87,89,91,93,95,97,99,101,103,105,107,109,111,113,115,117,119,121,123,125,-1,-1,-1,-1,-1,-1,-1,-1,-1,-1,-1,-1,-1,-1,-1,-1,-1,-1,-1,-1,-1,-1,-1,-1,-1,-1,-1,-1,-1,-1,-1,-1,-1,-1,-1,-1,-1,-1,-1,-1,-1,-1,-1,-1,-1,-1,-1,-1,-1,-1,-1,-1,-1,-1,-1,-1,-1,-1,-1,-1,-1,-1,-1,-1],"loss_changes":[4.766737E2,1.5599582E2,1.05024506E2,1.00775116E2,4.879193E1,3.0907402E1,6.497897E1,4.8874058E1,3.6068222E1,3.1525879E1,9.965378E0,2.8449953E1,1.4513435E1,2.067392E1,4.0856674E1,2.5815231E1,3.2956554E1,2.748175E1,2.648888E1,1.6905914E1,1.4208046E1,1.093737E1,6.028595E0,2.5182312E1,1.272452E1,6.523876E0,1.3117894E1,6.2923737E0,1.1215973E1,2.8742798E1,1.2388123E1,1.7907566E1,4.7739525E0,9.405216E0,3.1814451E1,7.3445663E0,2.2518211E1,1.8787954E1,1.9188179E1,1.4846329E1,1.3898946E1,9.931381E0,5.05011E0,7.0124135E0,2.6386614E0,5.747444E0,4.5641403E0,2.1300838E1,1.3748537E1,9.8272915E0,1.3960946E1,4.7219696E0,5.453385E0,9.044736E0,9.393921E0,4.004032E0,4.025528E0,1.2400581E1,1.3705157E1,1.9264038E1,1.54448595E1,1.5028198E1,1.213826E1,0E0,0E0,0E0,0E0,0E0,0E0,0E0,0E0,0E0,0E0,0E0,0E0,0E0,0E0,0E0,0E0,0E0,0E0,0E0,0E0,0E0,0E0,0E0,0E0,0E0,0E0,0E0,0E0,0E0,0E0,0E0,0E0,0E0,0E0,0E0,0E0,0E0,0E0,0E0,0E0,0E0,0E0,0E0,0E0,0E0,0E0,0E0,0E0,0E0,0E0,0E0,0E0,0E0,0E0,0E0,0E0,0E0,0E0,0E0,0E0,0E0,0E0,0E0,0E0],"parents":[2147483647,0,0,1,1,2,2,3,3,4,4,5,5,6,6,7,7,8,8,9,9,10,10,11,11,12,12,13,13,14,14,15,15,16,16,17,17,18,18,19,19,20,20,21,21,22,22,23,23,24,24,25,25,26,26,27,27,28,28,29,29,30,30,31,31,32,32,33,33,34,34,35,35,36,36,37,37,38,38,39,39,40,40,41,41,42,42,43,43,44,44,45,45,46,46,47,47,48,48,49,49,50,50,51,51,52,52,53,53,54,54,55,55,56,56,57,57,58,58,59,59,60,60,61,61,62,62],"right_children":[2,4,6,8,10,12,14,16,18,20,22,24,26,28,30,32,34,36,38,40,42,44,46,48,50,52,54,56,58,60,62,64,66,68,70,72,74,76,78,80,82,84,86,88,90,92,94,96,98,100,102,104,106,108,110,112,114,116,118,120,122,124,126,-1,-1,-1,-1,-1,-1,-1,-1,-1,-1,-1,-1,-1,-1,-1,-1,-1,-1,-1,-1,-1,-1,-1,-1,-1,-1,-1,-1,-1,-1,-1,-1,-1,-1,-1,-1,-1,-1,-1,-1,-1,-1,-1,-1,-1,-1,-1,-1,-1,-1,-1,-1,-1,-1,-1,-1,-1,-1,-1,-1,-1,-1,-1,-1],"split_conditions":[2E1,1.24E3,5.4444444E-1,4.347826E-2,1.6222247E-1,2.48E2,-4.8535936E-2,-7.8E1,-5.5E1,4.94E3,9.613846E-3,1.71E2,-5E1,-1.7484723E-1,1.05E2,6.0211265E-1,-4.94E3,2.3E1,7.6190475E-3,9.52381E-2,5E0,2.777778E-1,5E0,2.709416E-1,3.272727E-1,1.76E-1,1.8181819E-1,5E0,3E0,6.9444445E-3,2.3E2,3.3E1,-2.26E2,6.101695E-2,3.1132075E-1,1.9628514E-1,5.55E2,6.557377E-2,3.1135532E-1,5E0,9.72E3,3.2E-1,1.6438356E-1,2.7522936E-2,1.69E2,1.3E1,3.918919E-1,3.1578946E-1,-5.4E1,2.8503563E-2,4.4444446E-2,2.8037382E-2,4.9586777E-2,7.7E1,2.3214285E-1,2.3809524E-1,-4.5225464E-2,2.95E3,2E0,2.8E3,4.9E2,9.5E1,3.9325844E-2,-6.2306924E-3,6.655644E-2,2.8373006E-1,1.3688532E-1,-1.8808234E-1,1.5122057E-1,-7.6734705E-4,-5.610091E-2,1.1988042E-1,2.0775785E-1,5.542018E-2,2.1810691E-1,-4.6405368E-2,2.9408542E-2,6.407189E-2,1.9779006E-1,5.856669E-2,1.3464475E-1,1.9982899E-2,-2.826933E-1,-1.2460408E-1,1.3168901E-1,2.6675427E-1,1.2047367E-2,4.6156712E-2,-2.4636011E-1,3.6568072E-1,-6.832543E-2,1.8714616E-1,9.876735E-2,-1.508473E-1,2.512278E-1,-2.2400908E-2,-8.872204E-2,-1.9064121E-2,1.2325356E-1,4.2818508E-1,-1.8040255E-1,-5.7762973E-3,9.125871E-2,-1.2133571E-1,-2.1597622E-1,4.6784133E-1,-1.1444867E-1,-1.5238039E-1,-1.98743E-2,2.0220946E-1,-1.5418142E-1,-7.1353093E-3,-1.9141991E-1,-2.7550504E-1,1.7117435E-1,-1.2134688E-1,-2.3511894E-1,-1.6030374E-1,-1.495983E-2,-5.3042922E-2,-1.1647299E-1,1.682696E-2,-2.6537675E-1,-1.6327839E-1,-3.780783E-2,3.451672E-1,-5.2115645E-2],"split_indices":[3,6,14,42,42,3,43,3,3,6,44,12,41,42,3,13,6,1,43,30,0,42,0,42,34,32,42,0,37,44,12,41,3,21,17,42,2,15,18,0,4,15,23,22,9,1,33,17,41,22,26,30,20,2,18,33,40,5,36,5,8,8,30,0,0,0,0,0,0,0,0,0,0,0,0,0,0,0,0,0,0,0,0,0,0,0,0,0,0,0,0,0,0,0,0,0,0,0,0,0,0,0,0,0,0,0,0,0,0,0,0,0,0,0,0,0,0,0,0,0,0,0,0,0,0,0,0],"split_type":[0,0,0,0,0,0,0,0,0,0,0,0,0,0,0,0,0,0,0,0,0,0,0,0,0,0,0,0,0,0,0,0,0,0,0,0,0,0,0,0,0,0,0,0,0,0,0,0,0,0,0,0,0,0,0,0,0,0,0,0,0,0,0,0,0,0,0,0,0,0,0,0,0,0,0,0,0,0,0,0,0,0,0,0,0,0,0,0,0,0,0,0,0,0,0,0,0,0,0,0,0,0,0,0,0,0,0,0,0,0,0,0,0,0,0,0,0,0,0,0,0,0,0,0,0,0,0],"sum_hessian":[2.8667121E4,1.8299182E4,1.0367939E4,1.5625871E4,2.673311E3,5.555736E3,4.8122036E3,9.520462E3,6.1054087E3,2.0946147E3,5.786963E2,5.128025E3,4.2771103E2,8.769199E2,3.9352837E3,1.406896E3,8.1135664E3,1.7924469E3,4.312962E3,1.7605428E3,3.3407187E2,6.0695107E1,5.1800116E2,4.5797617E3,5.4826306E2,2.0531267E2,2.2239835E2,2.4415553E2,6.327644E2,3.2190654E3,7.162183E2,1.2348698E3,1.7202632E2,1.1901412E2,7.9945522E3,3.6250967E2,1.4299371E3,3.6343213E3,6.7864056E2,1.2679752E3,4.9256763E2,2.2671887E2,1.07353004E2,5.003211E1,1.0662998E1,3.8898245E2,1.2901872E2,4.325591E3,2.5417108E2,1.397777E1,5.342853E2,2.0115193E2,4.1607366E0,1.874883E2,3.491005E1,9.397692E1,1.5017862E2,3.9443484E2,2.3832953E2,2.645956E3,5.731092E2,6.580845E2,5.8133873E1,5.405229E2,6.943468E2,2.3545828E1,1.484805E2,1.1187497E2,7.139149E0,6.9141084E3,1.0804436E3,2.1045758E2,1.520521E2,1.3495848E3,8.035233E1,3.2196088E2,3.3123606E3,5.624597E2,1.161809E2,9.637297E2,3.0424554E2,4.795125E2,1.30551E1,1.3763159E1,2.1295572E2,9.97191E1,7.6338987E0,4.21347E1,7.8974075E0,9.555012E0,1.1079865E0,2.990441E2,8.9938324E1,1.9737415E0,1.27044975E2,3.8346072E3,4.9098346E2,1.0063982E2,1.5353127E2,1.1626859E1,2.350911E0,2.8280505E2,2.5148022E2,1.0813107E2,9.302085E1,1.8308468E0,2.3298898E0,8.257459E1,1.0491371E2,2.6988031E1,7.9220185E0,1.2263596E1,8.1713326E1,1.4896552E2,1.2131026E0,2.6301587E2,1.3141898E2,1.0072318E2,1.3760635E2,2.10335E3,5.4260596E2,5.5608954E2,1.701965E1,5.556499E2,1.02434586E2,6.980634E0,5.115324E1],"tree_param":{"num_deleted":"0","num_feature":"45","num_nodes":"127","size_leaf_vector":"1"}},{"base_weights":[1.7472345E-5,-1.2223784E-1,7.7613354E-2,-2.2115028E-1,-5.7647057E-2,1.7750081E-1,8.282185E-3,-4.2521477E-1,-1.6197203E-1,4.309727E-2,-1.2962481E-1,1.4090465E-1,4.2917877E-1,2.5815932E-2,-1.5844828E-1,-3.459757E-1,-7.002215E-1,-2.521219E-1,-7.6844335E-2,2.6517577E-2,6.5625024E-1,-1.0857413E-1,-4.9095243E-1,1.2728171E-1,4.714254E-1,3.4841192E-1,7.254791E-1,5.3358506E-2,-9.790253E-2,-2.66312E-1,4.469497E-2,-5.302513E-1,-2.5936306E-1,-9.2873234E-1,-5.6615627E-1,7.2862804E-1,-2.6435474E-1,-4.002698E-1,-5.1400863E-2,2.9642284E-1,-5.1498516E-3,2.4763003E-1,9.5789826E-1,-1.3908105E-1,1.06048934E-1,-1.3627717E0,-4.3422976E-1,2.7469948E-1,9.56877E-2,5.234637E-1,-4.22902E-1,2.678356E-1,5.887856E-1,8.055055E-1,3.3053175E-1,-1.3076127E-1,7.272179E-2,-1.2300617E-1,3.349564E-1,-3.2565865E-1,1.00811005E-1,-5.529849E-1,1.2924646E-1,1.3561928E-1,-1.7097723E-1,-1.6319047E-1,-5.8259845E-2,7.315555E-2,-2.919925E-1,2.9676574E-1,-1.7802459E-1,1.5329201E-2,3.403554E-1,-1.9606341E-1,-7.220104E-2,3.071432E-2,-1.8783101E-1,-2.3329064E-2,8.9687034E-2,6.1452385E-2,1.939867E-1,-9.003692E-2,9.806402E-3,-4.6147324E-2,3.0794913E-1,3.1649652E-1,-3.2769704E-1,-5.1829033E-2,8.873231E-3,1.6067503E-2,1.9962846E-1,-4.539296E-1,3.8865194E-2,6.992487E-2,-1.4779174E-1,2.234555E-2,1.0619637E-1,3.753663E-2,-3.2144487E-2,8.577487E-2,1.9430839E-1,3.8438305E-2,-3.4045705E-1,2.9003993E-1,7.126866E-2,9.275924E-2,2.1487178E-1,2.837845E-1,1.8482828E-1,-2.5387177E-1,1.4728455E-1,-2.2887105E-2,-2.3414937E-1,1.3994868E-2,7.218231E-2,-3.2591254E-2,-2.7310982E-1,1.3654831E-1,-1.07687585E-1,-1.1849971E-1,-2.1440085E-2,6.611801E-2,-2.8436056E-1,-4.9312163E-2,-2.3252018E-1,2.7356656E-2,2.9612768E-1],"categories":[],"categories_nodes":[],"categories_segments":[],"categories_sizes":[],"default_left":[0,0,0,0,0,0,0,0,0,0,0,0,0,0,0,0,0,0,0,0,0,0,0,0,0,0,0,0,0,0,0,0,0,0,0,0,0,0,0,0,0,0,0,0,0,0,0,0,0,0,0,0,0,0,0,0,0,0,0,0,0,0,0,0,0,0,0,0,0,0,0,0,0,0,0,0,0,0,0,0,0,0,0,0,0,0,0,0,0,0,0,0,0,0,0,0,0,0,0,0,0,0,0,0,0,0,0,0,0,0,0,0,0,0,0,0,0,0,0,0,0,0,0,0,0,0,0],"id":6,"left_children":[1,3,5,7,9,11,13,15,17,19,21,23,25,27,29,31,33,35,37,39,41,43,45,47,49,51,53,55,57,59,61,63,65,67,69,71,73,75,77,79,81,83,85,87,89,91,93,95,97,99,101,103,105,107,109,111,113,115,117,119,121,123,125,-1,-1,-1,-1,-1,-1,-1,-1,-1,-1,-1,-1,-1,-1,-1,-1,-1,-1,-1,-1,-1,-1,-1,-1,-1,-1,-1,-1,-1,-1,-1,-1,-1,-1,-1,-1,-1,-1,-1,-1,-1,-1,-1,-1,-1,-1,-1,-1,-1,-1,-1,-1,-1,-1,-1,-1,-1,-1,-1,-1,-1,-1,-1,-1],"loss_changes":[2.6747702E2,6.992853E1,1.1944699E2,5.2152725E1,4.8039078E1,6.502725E1,2.9771305E1,2.092839E1,2.5718765E1,2.8052378E1,2.9336273E1,2.7726402E1,2.120462E1,3.1403234E1,2.1245462E1,1.193161E1,6.1017456E0,1.9729492E1,1.4186096E1,2.2989403E1,8.718145E0,2.3929249E1,9.913387E0,2.758435E1,1.1572937E1,1.3526001E1,5.7746735E0,2.6880718E1,1.8276583E1,1.382663E1,1.7098757E1,9.642738E0,9.470749E0,4.33683E0,6.4763412E0,5.5321074E0,1.467511E1,1.4339956E1,1.481658E1,8.925816E0,2.6886793E1,1.0227653E1,9.403236E0,1.817434E1,1.3327797E1,3.0023212E0,7.946228E0,1.6574402E1,2.916933E1,6.630268E0,5.6241217E0,1.1005447E1,6.069294E0,3.6264267E0,6.814662E0,2.5337132E1,2.9843521E1,1.7854134E1,7.858797E0,9.582031E0,1.1352924E1,3.4928598E0,9.5734825E0,0E0,0E0,0E0,0E0,0E0,0E0,0E0,0E0,0E0,0E0,0E0,0E0,0E0,0E0,0E0,0E0,0E0,0E0,0E0,0E0,0E0,0E0,0E0,0E0,0E0,0E0,0E0,0E0,0E0,0E0,0E0,0E0,0E0,0E0,0E0,0E0,0E0,0E0,0E0,0E0,0E0,0E0,0E0,0E0,0E0,0E0,0E0,0E0,0E0,0E0,0E0,0E0,0E0,0E0,0E0,0E0,0E0,0E0,0E0,0E0,0E0,0E0,0E0,0E0],"parents":[2147483647,0,0,1,1,2,2,3,3,4,4,5,5,6,6,7,7,8,8,9,9,10,10,11,11,12,12,13,13,14,14,15,15,16,16,17,17,18,18,19,19,20,20,21,21,22,22,23,23,24,24,25,25,26,26,27,27,28,28,29,29,30,30,31,31,32,32,33,33,34,34,35,35,36,36,37,37,38,38,39,39,40,40,41,41,42,42,43,43,44,44,45,45,46,46,47,47,48,48,49,49,50,50,51,51,52,52,53,53,54,54,55,55,56,56,57,57,58,58,59,59,60,60,61,61,62,62],"right_children":[2,4,6,8,10,12,14,16,18,20,22,24,26,28,30,32,34,36,38,40,42,44,46,48,50,52,54,56,58,60,62,64,66,68,70,72,74,76,78,80,82,84,86,88,90,92,94,96,98,100,102,104,106,108,110,112,114,116,118,120,122,124,126,-1,-1,-1,-1,-1,-1,-1,-1,-1,-1,-1,-1,-1,-1,-1,-1,-1,-1,-1,-1,-1,-1,-1,-1,-1,-1,-1,-1,-1,-1,-1,-1,-1,-1,-1,-1,-1,-1,-1,-1,-1,-1,-1,-1,-1,-1,-1,-1,-1,-1,-1,-1,-1,-1,-1,-1,-1,-1,-1,-1,-1,-1,-1,-1],"split_conditions":[-3.544664E-2,3E1,-2.6E1,-1.6798419E-1,2.8169014E-2,6.7346936E-1,9.5E1,5E0,-1.420635E-1,1.9E1,3.3333334E-1,3.7762237E-1,6.37E3,1.6E2,6.7E1,8E-2,-2.777778E-1,2.7027028E-2,3.2E1,-1.05E2,2.8333333E-1,2.18E2,-9.017206E-2,-1.3E2,1.2903225E-1,5E0,1.19E3,6.1728396E-2,2.1938775E-1,9.677419E-2,2E0,6E0,4E0,1.369863E-2,3.918919E-1,3.4E1,-1.3753791E-1,-1.03541665E-1,7.212476E-2,5.6565654E-1,-3.2357162E-1,-3.477283E-2,2.4390243E-2,1.04E-1,1.0344828E-1,7.4074075E-2,-5.76E2,4.2990655E-1,7.4E1,-1.4163886E-1,5.424354E-1,1E0,7.2442774E-5,1.27E2,1E0,1.7E1,2.9464287E-1,7.86E2,2.600473E-1,2.0348838E-2,5.32E2,5E0,4.649123E-1,1.3561928E-1,-1.7097723E-1,-1.6319047E-1,-5.8259845E-2,7.315555E-2,-2.919925E-1,2.9676574E-1,-1.7802459E-1,1.5329201E-2,3.403554E-1,-1.9606341E-1,-7.220104E-2,3.071432E-2,-1.8783101E-1,-2.3329064E-2,8.9687034E-2,6.1452385E-2,1.939867E-1,-9.003692E-2,9.806402E-3,-4.6147324E-2,3.0794913E-1,3.1649652E-1,-3.2769704E-1,-5.1829033E-2,8.873231E-3,1.6067503E-2,1.9962846E-1,-4.539296E-1,3.8865194E-2,6.992487E-2,-1.4779174E-1,2.234555E-2,1.0619637E-1,3.753663E-2,-3.2144487E-2,8.577487E-2,1.9430839E-1,3.8438305E-2,-3.4045705E-1,2.9003993E-1,7.126866E-2,9.275924E-2,2.1487178E-1,2.837845E-1,1.8482828E-1,-2.5387177E-1,1.4728455E-1,-2.2887105E-2,-2.3414937E-1,1.3994868E-2,7.218231E-2,-3.2591254E-2,-2.7310982E-1,1.3654831E-1,-1.07687585E-1,-1.1849971E-1,-2.1440085E-2,6.611801E-2,-2.8436056E-1,-4.9312163E-2,-2.3252018E-1,2.7356656E-2,2.9612768E-1],"split_indices":[44,2,3,42,20,13,3,0,40,35,17,18,4,9,2,17,42,18,7,3,18,12,43,3,16,0,5,15,27,29,7,11,2,28,34,11,43,40,21,13,42,40,20,27,20,29,6,13,1,42,33,11,42,9,37,35,18,41,18,21,4,10,42,0,0,0,0,0,0,0,0,0,0,0,0,0,0,0,0,0,0,0,0,0,0,0,0,0,0,0,0,0,0,0,0,0,0,0,0,0,0,0,0,0,0,0,0,0,0,0,0,0,0,0,0,0,0,0,0,0,0,0,0,0,0,0,0],"split_type":[0,0,0,0,0,0,0,0,0,0,0,0,0,0,0,0,0,0,0,0,0,0,0,0,0,0,0,0,0,0,0,0,0,0,0,0,0,0,0,0,0,0,0,0,0,0,0,0,0,0,0,0,0,0,0,0,0,0,0,0,0,0,0,0,0,0,0,0,0,0,0,0,0,0,0,0,0,0,0,0,0,0,0,0,0,0,0,0,0,0,0,0,0,0,0,0,0,0,0,0,0,0,0,0,0,0,0,0,0,0,0,0,0,0,0,0,0,0,0,0,0,0,0,0,0,0,0],"sum_hessian":[2.8193516E4,1.0946426E4,1.724709E4,4.3233496E3,6.6230757E3,7.065728E3,1.0181362E4,9.705196E2,3.35283E3,2.7601738E3,3.8629019E3,6.1701016E3,8.956266E2,9.213315E3,9.680476E2,7.55183E2,2.153366E2,1.6274286E3,1.7254014E3,2.6885195E3,7.165447E1,3.6514702E3,2.1143147E2,5.927188E3,2.4291345E2,7.054954E2,1.9013118E2,7.536161E3,1.6771539E3,6.3210535E2,3.3594226E2,2.3982121E2,5.153618E2,7.743058E1,1.37906E2,1.9327343E1,1.6081013E3,1.24761375E2,1.60064E3,2.814371E2,2.4070823E3,3.1204699E1,4.044977E1,3.1973457E3,4.5412457E2,1.1509341E1,1.9992213E2,1.0447386E3,4.8824497E3,2.2994812E2,1.2965334E1,5.299602E2,1.7553522E2,1.5723239E2,3.28988E1,7.165876E2,6.819573E3,1.5858959E3,9.125813E1,5.4424005E2,8.7865265E1,4.0947964E1,2.949943E2,8.906156E0,2.3091505E2,9.464545E1,4.2071637E2,2.672005E0,7.4758575E1,1.7674416E0,1.3613857E2,7.662546E0,1.1664797E1,9.072343E1,1.5173778E3,3.8846066E1,8.591531E1,1.4893517E3,1.1128829E2,2.2435135E2,5.7085766E1,2.728772E2,2.134205E3,2.1120815E1,1.0083882E1,3.9084324E1,1.3654481E0,2.6650837E3,5.32262E2,4.1616827E2,3.7956326E1,1.0443417E1,1.0659239E0,1.5849937E1,1.8407219E2,2.969183E2,7.478204E2,4.264057E3,6.183923E2,8.009544E1,1.4985268E2,7.770926E0,5.194408E0,2.0716373E1,5.092438E2,5.6036644E1,1.1949857E2,8.799359E1,6.923879E1,3.4338448E0,2.9464954E1,6.6219E2,5.4397537E1,5.9039795E3,9.155942E2,1.5585908E3,2.7305E1,7.8077156E1,1.3180978E1,4.2716168E2,1.17078384E2,7.958044E1,8.284828E0,1.5523788E1,2.5424177E1,2.8352237E2,1.1471934E1],"tree_param":{"num_deleted":"0","num_feature":"45","num_nodes":"127","size_leaf_vector":"1"}},{"base_weights":[-3.6159687E-5,-5.8004122E-2,9.1589876E-2,-1.3586282E-2,-1.5579595E-1,2.4501546E-1,6.2622525E-2,-1.7847498E-3,-2.516267E-1,-1.9529793E-1,1.8137924E-2,2.0025676E-1,5.4569536E-1,2.4069035E-3,1.15152575E-1,-2.7494807E-2,1.1882234E-1,-1.4557162E-1,-4.1524264E-1,-1.48841E-1,-3.6201677E-1,5.606503E-2,-4.8508555E-1,1.4151205E-1,3.7981004E-1,5.642797E-1,-4.9835834E-1,-6.5198444E-2,1.00050755E-1,9.515455E-2,4.0848628E-1,5.7893423E-3,-1.3154064E-1,-7.709751E-1,1.3052247E-1,-5.5100445E-2,-4.1686803E-1,4.711319E-1,-4.4419995E-1,-1.289397E-1,-4.6366358E-1,-6.300733E-2,-4.2525715E-1,-2.0025702E-1,1.0531021E-1,-5.4776883E-1,7.3786354E-1,1.9579048E-1,-5.516375E-2,4.4391313E-1,-5.4574347E-1,-5.556509E-1,5.9086376E-1,-1.3073418E-1,8.5077375E-2,-1.4611478E-1,1.6066395E-1,1.221375E-1,-1.13944024E-1,5.011678E-1,1.6574086E-1,-8.995886E-3,4.1888736E-2,-6.636156E-2,-8.598503E-3,-3.6735937E-1,-4.798563E-2,2.977177E-2,1.23830765E-1,-4.0077254E-2,1.3181232E-1,-6.596426E-2,-2.925251E-1,-1.6906458E-1,6.339558E-1,-1.3814123E-1,2.7397382E-1,-4.9695425E-2,1.8306367E-2,-1.5452123E-1,1.4350879E-1,-6.678124E-2,1.9528054E-1,1.6567118E-2,-1.3578808E-1,5.500232E-2,-1.16839476E-1,2.5110235E-2,2.08614E-1,-8.515072E-3,-2.1189316E-1,-1.629403E-1,4.5464507E-1,1.4619243E-1,4.864084E-2,6.331755E-2,-9.7489364E-2,7.0463374E-2,1.7137995E-1,1.9209595E-1,-3.3929405E-1,-5.241934E-1,1.1763639E-1,1.8819542E-1,-7.14805E-2,-5.8487374E-2,1.5026939E-2,3.22726E-2,-1.4422399E-1,2.0003249E-1,-6.440888E-2,5.831222E-2,-4.4899438E-2,1.7894594E-3,5.0964065E-2,-2.0827169E-2,-2.3503228E-1,1.3337126E-1,3.468567E-1,-1.500187E-1,9.606575E-2],"categories":[],"categories_nodes":[],"categories_segments":[],"categories_sizes":[],"default_left":[0,0,0,0,0,0,0,0,0,0,0,0,0,0,0,0,0,0,0,0,0,0,0,0,0,0,0,0,0,0,0,0,0,0,0,0,0,0,0,0,0,0,0,0,0,0,0,0,0,0,0,0,0,0,0,0,0,0,0,0,0,0,0,0,0,0,0,0,0,0,0,0,0,0,0,0,0,0,0,0,0,0,0,0,0,0,0,0,0,0,0,0,0,0,0,0,0,0,0,0,0,0,0,0,0,0,0,0,0,0,0,0,0,0,0,0,0,0,0,0,0],"id":7,"left_children":[1,3,5,7,9,11,13,15,17,19,21,23,25,27,29,31,33,35,37,39,41,43,45,47,49,51,-1,53,55,57,59,61,63,65,67,69,71,73,75,77,79,81,83,85,87,89,91,93,95,97,99,101,103,105,107,109,111,113,115,117,119,-1,-1,-1,-1,-1,-1,-1,-1,-1,-1,-1,-1,-1,-1,-1,-1,-1,-1,-1,-1,-1,-1,-1,-1,-1,-1,-1,-1,-1,-1,-1,-1,-1,-1,-1,-1,-1,-1,-1,-1,-1,-1,-1,-1,-1,-1,-1,-1,-1,-1,-1,-1,-1,-1,-1,-1,-1,-1,-1,-1],"loss_changes":[1.4784062E2,7.40524E1,4.792125E1,3.293736E1,3.658957E1,2.2939941E1,2.8703018E1,3.4645504E1,9.549702E0,3.355641E1,1.8854027E1,1.5687168E1,1.0015007E1,2.7922546E1,2.8390762E1,3.1894705E1,2.0539711E1,8.262253E0,5.7858543E0,2.1214195E1,1.784256E1,1.1611085E1,5.7119045E0,1.2031626E1,2.2034172E1,6.8850937E0,0E0,2.4626453E1,2.5843866E1,2.5620102E1,6.869137E0,3.3418873E1,2.0584484E1,6.905713E0,1.7076462E1,9.928249E0,9.051466E0,1.3693316E1,5.078785E0,2.2291264E1,1.0004219E1,1.9076286E1,1.0280487E1,1.0836468E1,9.771235E0,5.450632E0,4.610317E0,8.5811615E0,1.7618109E1,9.02504E0,1.75494E1,7.034567E0,6.6663284E0,2.0226118E1,9.721407E0,1.923349E1,1.456028E1,2.2296501E1,1.5422005E1,7.758148E0,9.095666E0,0E0,0E0,0E0,0E0,0E0,0E0,0E0,0E0,0E0,0E0,0E0,0E0,0E0,0E0,0E0,0E0,0E0,0E0,0E0,0E0,0E0,0E0,0E0,0E0,0E0,0E0,0E0,0E0,0E0,0E0,0E0,0E0,0E0,0E0,0E0,0E0,0E0,0E0,0E0,0E0,0E0,0E0,0E0,0E0,0E0,0E0,0E0,0E0,0E0,0E0,0E0,0E0,0E0,0E0,0E0,0E0,0E0,0E0,0E0,0E0],"parents":[2147483647,0,0,1,1,2,2,3,3,4,4,5,5,6,6,7,7,8,8,9,9,10,10,11,11,12,12,13,13,14,14,15,15,16,16,17,17,18,18,19,19,20,20,21,21,22,22,23,23,24,24,25,25,27,27,28,28,29,29,30,30,31,31,32,32,33,33,34,34,35,35,36,36,37,37,38,38,39,39,40,40,41,41,42,42,43,43,44,44,45,45,46,46,47,47,48,48,49,49,50,50,51,51,52,52,53,53,54,54,55,55,56,56,57,57,58,58,59,59,60,60],"right_children":[2,4,6,8,10,12,14,16,18,20,22,24,26,28,30,32,34,36,38,40,42,44,46,48,50,52,-1,54,56,58,60,62,64,66,68,70,72,74,76,78,80,82,84,86,88,90,92,94,96,98,100,102,104,106,108,110,112,114,116,118,120,-1,-1,-1,-1,-1,-1,-1,-1,-1,-1,-1,-1,-1,-1,-1,-1,-1,-1,-1,-1,-1,-1,-1,-1,-1,-1,-1,-1,-1,-1,-1,-1,-1,-1,-1,-1,-1,-1,-1,-1,-1,-1,-1,-1,-1,-1,-1,-1,-1,-1,-1,-1,-1,-1,-1,-1,-1,-1,-1,-1],"split_conditions":[3.544664E-2,4E1,1.1E1,4.445E3,6.6E1,3.2632422E-1,3.97351E-2,1.6E2,1.41E2,5E0,5.55E2,5E0,5.09434E-1,1.1666667E-1,3.2E-1,2.247191E-2,-3.4938273E-1,5E0,-3.0910808E-1,7.4061435E-1,1.724138E-2,-2.409586E-1,5.5762082E-2,8.130081E-2,7.2115384E-2,-1.9628702E-1,-4.9835834E-1,2.1818182E-1,1E1,2.18E2,4.7904193E-2,1.9607844E-2,3.2051284E-2,6E0,2.173913E-1,2.9815147E-3,2.1818182E-1,-7.692308E-2,8.064516E-2,6.1946902E-2,1.3043478E-1,1.8E1,4.0816326E-2,5.172414E-2,4.5454547E-2,8E0,3.553719E-1,5.4054055E-2,1.01E2,4.349402E-3,1.24E2,6.666667E-2,5.357143E-2,4E0,1.83E2,1E0,7.6612905E-2,5E1,8.9E2,1.8629721E-1,-2.1281734E-1,-8.995886E-3,4.1888736E-2,-6.636156E-2,-8.598503E-3,-3.6735937E-1,-4.798563E-2,2.977177E-2,1.23830765E-1,-4.0077254E-2,1.3181232E-1,-6.596426E-2,-2.925251E-1,-1.6906458E-1,6.339558E-1,-1.3814123E-1,2.7397382E-1,-4.9695425E-2,1.8306367E-2,-1.5452123E-1,1.4350879E-1,-6.678124E-2,1.9528054E-1,1.6567118E-2,-1.3578808E-1,5.500232E-2,-1.16839476E-1,2.5110235E-2,2.08614E-1,-8.515072E-3,-2.1189316E-1,-1.629403E-1,4.5464507E-1,1.4619243E-1,4.864084E-2,6.331755E-2,-9.7489364E-2,7.0463374E-2,1.7137995E-1,1.9209595E-1,-3.3929405E-1,-5.241934E-1,1.1763639E-1,1.8819542E-1,-7.14805E-2,-5.8487374E-2,1.5026939E-2,3.22726E-2,-1.4422399E-1,2.0003249E-1,-6.440888E-2,5.831222E-2,-4.4899438E-2,1.7894594E-3,5.0964065E-2,-2.0827169E-2,-2.3503228E-1,1.3337126E-1,3.468567E-1,-1.500187E-1,9.606575E-2],"split_indices":[44,3,1,5,2,40,19,12,9,0,1,0,14,42,18,22,40,0,44,14,20,42,25,20,22,42,0,18,7,9,26,21,21,8,24,43,23,42,43,29,20,35,18,18,43,12,33,18,9,42,8,19,22,37,1,10,30,2,7,44,42,0,0,0,0,0,0,0,0,0,0,0,0,0,0,0,0,0,0,0,0,0,0,0,0,0,0,0,0,0,0,0,0,0,0,0,0,0,0,0,0,0,0,0,0,0,0,0,0,0,0,0,0,0,0,0,0,0,0,0,0],"split_type":[0,0,0,0,0,0,0,0,0,0,0,0,0,0,0,0,0,0,0,0,0,0,0,0,0,0,0,0,0,0,0,0,0,0,0,0,0,0,0,0,0,0,0,0,0,0,0,0,0,0,0,0,0,0,0,0,0,0,0,0,0,0,0,0,0,0,0,0,0,0,0,0,0,0,0,0,0,0,0,0,0,0,0,0,0,0,0,0,0,0,0,0,0,0,0,0,0,0,0,0,0,0,0,0,0,0,0,0,0,0,0,0,0,0,0,0,0,0,0,0,0],"sum_hessian":[2.7832719E4,1.704771E4,1.0785007E4,1.1723804E4,5.323907E3,1.7116729E3,9.073334E3,1.1170979E4,5.5282556E2,4.3384766E3,9.854307E2,1.4913405E3,2.2033237E2,4.2279023E3,4.845432E3,9.208711E3,1.9622673E3,3.3655914E2,2.162664E2,3.3944822E3,9.4399457E2,9.171921E2,6.823864E1,1.1250458E3,3.6629477E2,2.1923053E2,1.1018403E0,2.498415E3,1.729487E3,4.537418E3,3.0801404E2,6.977546E3,2.2311648E3,2.462515E1,1.9376421E3,2.5329436E2,8.326479E1,6.358696E0,2.099077E2,3.193986E3,2.0049606E2,1.6514798E2,7.788466E2,1.4732037E2,7.698717E2,6.5436714E1,2.8019211E0,8.817152E2,2.4333054E2,3.430554E2,2.323936E1,4.621819E0,2.1460872E2,1.7398092E3,7.5860596E2,3.4143256E2,1.3880544E3,4.0191821E3,5.18236E2,2.2213655E2,8.587748E1,5.50644E3,1.4711061E3,1.1915311E3,1.0396337E3,1.3557495E1,1.1067655E1,1.7455258E3,1.9211644E2,2.1922546E2,3.4068897E1,6.2576313E1,2.068848E1,4.303687E0,2.055009E0,2.0807443E2,1.833267E0,2.676798E3,5.1718805E2,1.9055078E2,9.945283E0,1.3553769E2,2.9610287E1,4.191986E1,7.3692676E2,4.8672756E1,9.864761E1,7.4377515E2,2.6096554E1,1.5578924E1,4.985779E1,1.1722989E0,1.6296222E0,8.985986E1,7.9185535E2,1.22587105E2,1.2074343E2,1.3095416E2,2.1210123E2,7.6471763E0,1.5592184E1,1.6737579E0,2.948061E0,2.058036E2,8.805113E0,1.2837708E3,4.5603845E2,7.303751E2,2.823085E1,2.5885996E1,3.1554657E2,1.2523853E3,1.3566927E2,1.1709724E3,2.8482097E3,4.8695804E2,3.1277987E1,2.0601465E2,1.6121914E1,1.5751449E1,7.012603E1],"tree_param":{"num_deleted":"0","num_feature":"45","num_nodes":"121","size_leaf_vector":"1"}},{"base_weights":[-5.8092046E-5,-1.0680724E-1,3.1626865E-2,1.1035762E-1,-1.4165634E-1,7.404876E-3,1.4418457E-1,-4.209875E-1,1.5787937E-1,-3.0217987E-1,-1.0915484E-1,-1.1865766E-2,1.18635535E-1,9.370416E-2,3.3384293E-1,-6.0677177E-1,3.0624148E-1,3.3267941E-3,2.6503503E-1,-2.531017E-1,-5.359276E-1,-2.7313298E-1,-7.898557E-2,5.108567E-3,-1.3489531E-1,-9.0590484E-2,1.6138802E-1,1.7667602E-1,2.0516692E-2,2.9154238E-1,9.2624414E-1,1.6736546E-1,-7.046977E-1,4.1120067E-1,-2.7797198E-2,1.16563976E-1,-3.6828902E-1,2.8667226E-1,-6.464443E-1,-2.7977997E-1,2.7249575E-1,-7.59034E-1,-2.1555392E-1,-8.991581E-2,-3.6058146E-1,-8.86601E-2,3.4903577E-1,-1.0768211E-2,1.8210338E-1,-1.0813144E-1,-6.7426926E-1,-8.986831E-3,-4.3175128E-1,1.3650478E-1,3.9573118E-1,4.259083E-1,1.3499558E-1,-2.2840967E-2,3.2262823E-1,2.5941676E-1,8.5121083E-1,1.0063348E0,-4.2877057E-1,2.0523053E-1,-2.60639E-1,-2.7155963E-1,-6.72523E-2,-2.0993745E-1,1.3450168E-1,-2.7984205E-1,5.2012496E-2,-6.0414664E-2,-3.802916E-1,3.3182386E-2,1.2646137E-1,2.5745207E-1,-3.0458742E-1,-7.419091E-2,-1.7675346E-1,-3.3903815E-2,2.2623931E-1,-2.377284E-1,2.6887462E-1,-9.36748E-2,2.2778316E-1,7.569193E-2,-5.8366217E-2,-1.12244E-1,2.3687252E-1,3.643605E-2,-3.2766167E-2,-7.475401E-2,1.6898504E-1,4.3376284E-3,-3.133055E-2,1.373779E-1,3.818508E-2,-2.505406E-2,-1.5568967E-1,-3.3352744E-2,-2.82785E-1,1.5014065E-2,-9.859472E-2,-1.667202E-1,1.7321485E-1,7.385659E-2,2.2808788E-2,1.3637377E-1,-1.959601E-1,1.4798457E-3,1.5806663E-1,-1.049786E-1,4.7534097E-2,3.4260232E-2,-3.0285178E-2,1.4754666E-1,-2.2844043E-4,8.609729E-2,-1.106824E-1,2.870271E-1,1.4465603E-1,-2.326569E-2,3.1617618E-1,-3.9398488E-1,2.2651485E-1],"categories":[],"categories_nodes":[],"categories_segments":[],"categories_sizes":[],"default_left":[0,0,0,0,0,0,0,0,0,0,0,0,0,0,0,0,0,0,0,0,0,0,0,0,0,0,0,0,0,0,0,0,0,0,0,0,0,0,0,0,0,0,0,0,0,0,0,0,0,0,0,0,0,0,0,0,0,0,0,0,0,0,0,0,0,0,0,0,0,0,0,0,0,0,0,0,0,0,0,0,0,0,0,0,0,0,0,0,0,0,0,0,0,0,0,0,0,0,0,0,0,0,0,0,0,0,0,0,0,0,0,0,0,0,0,0,0,0,0,0,0,0,0,0,0],"id":8,"left_children":[1,3,5,7,9,11,13,15,17,19,21,23,25,27,29,31,33,35,37,39,41,43,45,47,49,51,53,55,57,59,61,63,65,-1,67,69,71,73,75,77,79,81,83,85,87,89,91,93,95,97,99,101,103,105,107,109,111,113,115,117,119,121,123,-1,-1,-1,-1,-1,-1,-1,-1,-1,-1,-1,-1,-1,-1,-1,-1,-1,-1,-1,-1,-1,-1,-1,-1,-1,-1,-1,-1,-1,-1,-1,-1,-1,-1,-1,-1,-1,-1,-1,-1,-1,-1,-1,-1,-1,-1,-1,-1,-1,-1,-1,-1,-1,-1,-1,-1,-1,-1,-1,-1,-1,-1],"loss_changes":[9.316263E1,4.7726265E1,5.7905865E1,2.20932E1,2.8311996E1,3.7468155E1,3.5978653E1,9.898201E0,1.3271986E1,1.035231E1,2.2337845E1,3.1115244E1,2.3103294E1,1.8043491E1,1.9533173E1,4.484024E0,5.47544E0,1.3894294E1,9.519344E0,1.0697651E1,1.1111904E1,1.1213879E1,1.584413E1,3.67967E1,2.6004349E1,1.2206332E1,1.2445866E1,1.44103775E1,2.0706274E1,1.3067215E1,6.0974197E0,4.4897738E0,4.741379E0,0E0,4.3515577E0,1.52472515E1,1.1320413E1,1.0947338E1,7.132377E0,7.102974E0,6.973283E0,5.8285065E0,6.4729686E0,8.217784E0,7.703472E0,1.6149284E1,1.0984528E1,2.839643E1,1.6240192E1,1.7375078E1,1.2770439E1,6.7146444E0,1.0910156E1,1.2845516E1,1.2965889E1,8.4603195E0,1.3641235E1,1.4813619E1,1.0855293E1,1.2240948E1,1.0842209E0,2.6396751E0,4.776788E0,0E0,0E0,0E0,0E0,0E0,0E0,0E0,0E0,0E0,0E0,0E0,0E0,0E0,0E0,0E0,0E0,0E0,0E0,0E0,0E0,0E0,0E0,0E0,0E0,0E0,0E0,0E0,0E0,0E0,0E0,0E0,0E0,0E0,0E0,0E0,0E0,0E0,0E0,0E0,0E0,0E0,0E0,0E0,0E0,0E0,0E0,0E0,0E0,0E0,0E0,0E0,0E0,0E0,0E0,0E0,0E0,0E0,0E0,0E0,0E0,0E0,0E0],"parents":[2147483647,0,0,1,1,2,2,3,3,4,4,5,5,6,6,7,7,8,8,9,9,10,10,11,11,12,12,13,13,14,14,15,15,16,16,17,17,18,18,19,19,20,20,21,21,22,22,23,23,24,24,25,25,26,26,27,27,28,28,29,29,30,30,31,31,32,32,34,34,35,35,36,36,37,37,38,38,39,39,40,40,41,41,42,42,43,43,44,44,45,45,46,46,47,47,48,48,49,49,50,50,51,51,52,52,53,53,54,54,55,55,56,56,57,57,58,58,59,59,60,60,61,61,62,62],"right_children":[2,4,6,8,10,12,14,16,18,20,22,24,26,28,30,32,34,36,38,40,42,44,46,48,50,52,54,56,58,60,62,64,66,-1,68,70,72,74,76,78,80,82,84,86,88,90,92,94,96,98,100,102,104,106,108,110,112,114,116,118,120,122,124,-1,-1,-1,-1,-1,-1,-1,-1,-1,-1,-1,-1,-1,-1,-1,-1,-1,-1,-1,-1,-1,-1,-1,-1,-1,-1,-1,-1,-1,-1,-1,-1,-1,-1,-1,-1,-1,-1,-1,-1,-1,-1,-1,-1,-1,-1,-1,-1,-1,-1,-1,-1,-1,-1,-1,-1,-1,-1,-1,-1,-1,-1],"split_conditions":[-1.04779415E-1,9E0,6.35E2,2E0,-2.7096775E-1,1.8181819E-1,5E0,-2.2916667E-1,1E0,5E0,1.2E1,3.1132075E-1,1E1,1.3043478E-1,3.1578946E-1,4.8E1,3E0,8E1,2.75E2,1.5517241E-1,4.5E1,1.2565444E-1,1.3207547E-1,3.1135532E-1,1.9E1,5.7831323E-1,3.1826045E-2,2.8985508E-2,2.1276596E-1,2.777778E-1,1.4371258E-1,2E0,2.59E2,4.1120067E-1,2.0238096E-1,-6.6843204E-4,8.496732E-2,3.2E1,-1.923077E-1,3.846154E-1,1.8E1,2.4E2,5.952381E-2,7E0,2.5862068E-1,6.1728396E-2,7.15E2,1.21212125E-1,5.263158E-2,1.05E2,2.5641026E-2,5.670103E-1,4E0,7.7731095E-2,2.8735632E-1,4.0449437E-1,-7.926829E-2,8.3E1,1.3E2,6.912442E-2,2.4793388E-2,3.7864077E-1,3.4359153E-2,2.0523053E-1,-2.60639E-1,-2.7155963E-1,-6.72523E-2,-2.0993745E-1,1.3450168E-1,-2.7984205E-1,5.2012496E-2,-6.0414664E-2,-3.802916E-1,3.3182386E-2,1.2646137E-1,2.5745207E-1,-3.0458742E-1,-7.419091E-2,-1.7675346E-1,-3.3903815E-2,2.2623931E-1,-2.377284E-1,2.6887462E-1,-9.36748E-2,2.2778316E-1,7.569193E-2,-5.8366217E-2,-1.12244E-1,2.3687252E-1,3.643605E-2,-3.2766167E-2,-7.475401E-2,1.6898504E-1,4.3376284E-3,-3.133055E-2,1.373779E-1,3.818508E-2,-2.505406E-2,-1.5568967E-1,-3.3352744E-2,-2.82785E-1,1.5014065E-2,-9.859472E-2,-1.667202E-1,1.7321485E-1,7.385659E-2,2.2808788E-2,1.3637377E-1,-1.959601E-1,1.4798457E-3,1.5806663E-1,-1.049786E-1,4.7534097E-2,3.4260232E-2,-3.0285178E-2,1.4754666E-1,-2.2844043E-4,8.609729E-2,-1.106824E-1,2.870271E-1,1.4465603E-1,-2.326569E-2,3.1617618E-1,-3.9398488E-1,2.2651485E-1],"split_indices":[42,12,6,7,42,42,0,44,38,0,2,17,7,23,18,1,36,9,9,27,2,18,25,18,35,15,43,28,42,42,30,12,1,0,34,43,19,8,40,17,9,9,21,35,31,16,4,28,16,3,20,14,41,18,23,33,44,9,9,22,21,33,43,0,0,0,0,0,0,0,0,0,0,0,0,0,0,0,0,0,0,0,0,0,0,0,0,0,0,0,0,0,0,0,0,0,0,0,0,0,0,0,0,0,0,0,0,0,0,0,0,0,0,0,0,0,0,0,0,0,0,0,0,0,0],"split_type":[0,0,0,0,0,0,0,0,0,0,0,0,0,0,0,0,0,0,0,0,0,0,0,0,0,0,0,0,0,0,0,0,0,0,0,0,0,0,0,0,0,0,0,0,0,0,0,0,0,0,0,0,0,0,0,0,0,0,0,0,0,0,0,0,0,0,0,0,0,0,0,0,0,0,0,0,0,0,0,0,0,0,0,0,0,0,0,0,0,0,0,0,0,0,0,0,0,0,0,0,0,0,0,0,0,0,0,0,0,0,0,0,0,0,0,0,0,0,0,0,0,0,0,0,0],"sum_hessian":[2.754182E4,6.3032607E3,2.1238559E4,8.7133044E2,5.43193E3,1.747835E4,3.7602085E3,7.0886215E1,8.004442E2,9.132295E2,4.5187007E3,1.4898148E4,2.5802017E3,2.9709417E3,7.892667E2,5.6593884E1,1.429233E1,3.2816168E2,4.7228253E2,7.5648004E2,1.567494E2,7.009259E2,3.817775E3,1.3092711E4,1.8054373E3,4.3758575E2,2.142616E3,1.3917338E3,1.579208E3,7.380577E2,5.1209034E1,6.2754273E0,5.0318455E1,2.6726148E0,1.1619716E1,2.5204572E2,7.611596E1,4.6200076E2,1.028176E1,7.2038257E2,3.609749E1,9.159438E1,6.515503E1,2.2711514E2,4.7381076E2,3.7341648E3,8.361014E1,1.201581E4,1.0769022E3,1.7212299E3,8.42074E1,3.5394946E2,8.3636284E1,1.938376E3,2.042399E2,1.9807947E2,1.1936543E3,1.38182E3,1.9738805E2,6.993762E2,3.8681496E1,4.8594116E1,2.6149201E0,4.413953E0,1.8614745E0,3.488057E1,1.5437887E1,4.623962E0,6.995754E0,1.2152592E1,2.3989313E2,6.523346E1,1.0882504E1,2.0118195E2,2.6081882E2,1.7630807E0,8.51868E0,6.535771E2,6.680547E1,2.0474628E1,1.562286E1,9.0294044E1,1.3003342E0,5.989374E1,5.261288E0,5.2851524E1,1.7426361E2,4.689545E2,4.856258E0,3.3239627E2,3.4017686E3,2.2005106E1,6.1605034E1,9.466955E3,2.5488542E3,1.773287E2,8.9957355E2,1.6250569E3,9.617299E1,2.7634386E1,5.657301E1,2.9948535E2,5.4464108E1,7.4885155E1,8.751129E0,6.878173E2,1.2505587E3,1.9392668E2,1.031321E1,3.852444E1,1.5955504E2,5.442115E1,1.1392332E3,5.014951E2,8.803249E2,1.2924673E2,6.814131E1,6.704961E2,2.8880096E1,2.8840147E1,9.84135E0,2.0172114E0,4.6576904E1,1.4340694E0,1.1808507E0],"tree_param":{"num_deleted":"0","num_feature":"45","num_nodes":"125","size_leaf_vector":"1"}},{"base_weights":[2.9153412E-5,-7.131171E-2,2.9809142E-2,-4.0993255E-1,-6.1351646E-2,4.3172007E-3,1.0547195E-1,-5.9804434E-1,-1.7705278E-1,-2.7318422E-2,-1.512905E-1,3.101067E-1,-1.7451491E-3,1.566557E-1,8.30589E-3,2.5556403E-1,-6.470986E-1,9.236017E-1,-2.6536146E-1,-1.4122735E-1,-5.8768876E-3,-1.9800551E-1,-4.0526856E-2,2.8180987E-1,3.8435113E-1,1.9962024E-2,-8.847245E-2,1.0826017E-1,2.8050736E-1,-1.6368042E-1,7.026837E-2,-6.037753E-1,5.12861E-1,-6.676444E-1,2.186553E-1,-1.4314678E-1,1.4448692E0,-9.232255E-1,-1.591683E-1,3.7612063E-1,-1.7756099E-1,-1.7591797E-2,3.2228488E-1,-2.2452839E-1,1.522782E-1,-1.6905616E-1,5.8785375E-2,1.06650814E-1,4.0624163E-1,-3.8252898E-2,6.049423E-2,-1.3626951E-1,4.9133066E-2,1.4286515E-1,-3.9071415E-2,1.3062546E-2,3.5145858E-1,-2.645522E-1,4.2132694E-2,-3.7283748E-1,1.04808405E-1,-2.7197263E-1,9.367981E-2,-2.1829304E-1,-4.271457E-2,4.2777423E-2,5.3974783E-1,-3.1878024E-1,5.599485E-3,3.902697E-1,-6.669039E-2,-3.2814455E-1,1.3410611E-1,-2.5158666E-2,-8.992192E-2,-2.4188503E-3,-8.525332E-2,-1.7394696E-1,1.0989116E-1,-3.0014552E-2,-8.159604E-2,8.27199E-2,-1.5278554E-1,-3.3642963E-2,-3.5020414E-1,6.309655E-2,-7.55391E-2,4.519025E-2,-3.013286E-1,1.3540864E-1,-1.454971E-1,-1.7241668E-2,6.3425444E-2,1.37253245E-2,7.726443E-2,-3.5925355E-2,-1.6401973E-1,1.9082753E-2,-2.4668333E-1,7.382515E-2,2.4536313E-2,4.2559505E-3,-1.6074008E-1,-3.981202E-1,1.7312983E-2,1.0973746E-1,-2.8909773E-1,1.6519314E-2,-1.1053795E-1,2.4668585E-1,-1.6299348E-2,-1.7195582E-2,-1.7937922E-1,-1.947166E-2,5.0304726E-2],"categories":[],"categories_nodes":[],"categories_segments":[],"categories_sizes":[],"default_left":[0,0,0,0,0,0,0,0,0,0,0,0,0,0,0,0,0,0,0,0,0,0,0,0,0,0,0,0,0,0,0,0,0,0,0,0,0,0,0,0,0,0,0,0,0,0,0,0,0,0,0,0,0,0,0,0,0,0,0,0,0,0,0,0,0,0,0,0,0,0,0,0,0,0,0,0,0,0,0,0,0,0,0,0,0,0,0,0,0,0,0,0,0,0,0,0,0,0,0,0,0,0,0,0,0,0,0,0,0,0,0,0,0,0,0],"id":9,"left_children":[1,3,5,7,9,11,13,15,17,19,21,23,25,27,29,31,33,35,37,39,41,43,45,47,-1,49,51,53,55,57,59,61,-1,63,-1,-1,65,67,69,71,73,75,77,79,81,83,85,87,89,91,93,95,97,99,101,103,105,107,109,111,113,-1,-1,-1,-1,-1,-1,-1,-1,-1,-1,-1,-1,-1,-1,-1,-1,-1,-1,-1,-1,-1,-1,-1,-1,-1,-1,-1,-1,-1,-1,-1,-1,-1,-1,-1,-1,-1,-1,-1,-1,-1,-1,-1,-1,-1,-1,-1,-1,-1,-1,-1,-1,-1,-1],"loss_changes":[5.800185E1,2.7091663E1,3.714981E1,9.950371E0,2.3906368E1,2.6710163E1,2.4138634E1,5.464958E0,1.0352941E1,1.3843401E1,1.1086956E1,7.335415E0,2.6600937E1,1.9024963E1,1.7869427E1,1.0521548E1,3.8781052E0,6.492185E0,6.6327457E0,1.6944817E1,1.834887E1,1.4043438E1,8.145172E0,5.9165287E0,0E0,2.6668648E1,1.861086E1,1.1668379E1,1.6932968E1,9.231611E0,1.8904135E1,1.8121405E0,0E0,3.6380463E0,0E0,0E0,2.5302505E0,1.7631416E0,8.102813E0,6.6631403E0,9.587311E0,1.1703129E1,6.7452145E0,8.256279E0,8.857828E0,1.5667251E1,1.7008968E1,5.7677584E0,6.633547E0,2.2274353E1,1.9345263E1,1.4170544E1,9.260424E0,1.1659626E1,1.1538775E1,1.1336574E1,1.3649155E1,9.923309E0,1.1102994E1,6.3117323E0,1.2220847E1,0E0,0E0,0E0,0E0,0E0,0E0,0E0,0E0,0E0,0E0,0E0,0E0,0E0,0E0,0E0,0E0,0E0,0E0,0E0,0E0,0E0,0E0,0E0,0E0,0E0,0E0,0E0,0E0,0E0,0E0,0E0,0E0,0E0,0E0,0E0,0E0,0E0,0E0,0E0,0E0,0E0,0E0,0E0,0E0,0E0,0E0,0E0,0E0,0E0,0E0,0E0,0E0,0E0,0E0],"parents":[2147483647,0,0,1,1,2,2,3,3,4,4,5,5,6,6,7,7,8,8,9,9,10,10,11,11,12,12,13,13,14,14,15,15,16,16,17,17,18,18,19,19,20,20,21,21,22,22,23,23,25,25,26,26,27,27,28,28,29,29,30,30,31,31,33,33,36,36,37,37,38,38,39,39,40,40,41,41,42,42,43,43,44,44,45,45,46,46,47,47,48,48,49,49,50,50,51,51,52,52,53,53,54,54,55,55,56,56,57,57,58,58,59,59,60,60],"right_children":[2,4,6,8,10,12,14,16,18,20,22,24,26,28,30,32,34,36,38,40,42,44,46,48,-1,50,52,54,56,58,60,62,-1,64,-1,-1,66,68,70,72,74,76,78,80,82,84,86,88,90,92,94,96,98,100,102,104,106,108,110,112,114,-1,-1,-1,-1,-1,-1,-1,-1,-1,-1,-1,-1,-1,-1,-1,-1,-1,-1,-1,-1,-1,-1,-1,-1,-1,-1,-1,-1,-1,-1,-1,-1,-1,-1,-1,-1,-1,-1,-1,-1,-1,-1,-1,-1,-1,-1,-1,-1,-1,-1,-1,-1,-1,-1],"split_conditions":[-6.901204E-2,-5.585E3,1.21212125E-1,1.233E3,2.2099448E-2,-2.78E2,4E0,3.2E-1,1E0,-2.511675E-1,3.3707865E-2,1.84E2,1.43E2,1.9932999E-1,1.1290322E-1,3.0708662E-1,1.2790698E-1,1.6780046E-1,2.7027028E-2,2E0,3.6842105E-1,6.2E2,3.4129694E-1,3.6813188E-1,3.8435113E-1,3.6E1,1.3029827E-1,3.3707865E-2,4.109589E-2,1.2785389E-1,1.3207547E-2,5.116279E-2,5.12861E-1,8.346915E-1,2.186553E-1,-1.4314678E-1,-4.51E2,3.3E1,3.3333335E-2,1E0,-1.5158612E-1,4.53125E-1,2.7E1,8.59375E-2,1.3898306E-1,1.21E3,1.11E2,5.2747256E-1,1.3829787E-1,1.71E2,3.6E-1,5.9E2,4.848485E-1,7.272727E-2,6.373057E-1,-1.7836258E-1,1.21212125E-1,3.4042552E-1,1.335505E-1,4.2E1,4.851199E-2,-2.7197263E-1,9.367981E-2,-2.1829304E-1,-4.271457E-2,4.2777423E-2,5.3974783E-1,-3.1878024E-1,5.599485E-3,3.902697E-1,-6.669039E-2,-3.2814455E-1,1.3410611E-1,-2.5158666E-2,-8.992192E-2,-2.4188503E-3,-8.525332E-2,-1.7394696E-1,1.0989116E-1,-3.0014552E-2,-8.159604E-2,8.27199E-2,-1.5278554E-1,-3.3642963E-2,-3.5020414E-1,6.309655E-2,-7.55391E-2,4.519025E-2,-3.013286E-1,1.3540864E-1,-1.454971E-1,-1.7241668E-2,6.3425444E-2,1.37253245E-2,7.726443E-2,-3.5925355E-2,-1.6401973E-1,1.9082753E-2,-2.4668333E-1,7.382515E-2,2.4536313E-2,4.2559505E-3,-1.6074008E-1,-3.981202E-1,1.7312983E-2,1.0973746E-1,-2.8909773E-1,1.6519314E-2,-1.1053795E-1,2.4668585E-1,-1.6299348E-2,-1.7195582E-2,-1.7937922E-1,-1.947166E-2,5.0304726E-2],"split_indices":[44,6,27,4,22,3,37,16,37,42,21,5,9,40,17,15,20,18,29,10,24,10,33,33,0,8,40,22,19,32,19,25,0,14,0,0,41,1,29,38,40,15,2,28,27,4,9,14,29,12,18,41,14,23,33,42,22,15,32,8,40,0,0,0,0,0,0,0,0,0,0,0,0,0,0,0,0,0,0,0,0,0,0,0,0,0,0,0,0,0,0,0,0,0,0,0,0,0,0,0,0,0,0,0,0,0,0,0,0,0,0,0,0,0,0],"split_type":[0,0,0,0,0,0,0,0,0,0,0,0,0,0,0,0,0,0,0,0,0,0,0,0,0,0,0,0,0,0,0,0,0,0,0,0,0,0,0,0,0,0,0,0,0,0,0,0,0,0,0,0,0,0,0,0,0,0,0,0,0,0,0,0,0,0,0,0,0,0,0,0,0,0,0,0,0,0,0,0,0,0,0,0,0,0,0,0,0,0,0,0,0,0,0,0,0,0,0,0,0,0,0,0,0,0,0,0,0,0,0,0,0,0,0],"sum_hessian":[2.7299023E4,8.039124E3,1.92599E4,2.2855594E2,7.810568E3,1.4407016E4,4.8528843E3,1.2556283E2,1.0299311E2,5.667331E3,2.143237E3,2.790951E2,1.4127921E4,3.1781377E3,1.6747465E3,6.5948043E0,1.18968025E2,6.9471383E0,9.604597E1,8.9690485E2,4.7704263E3,1.5069059E3,6.363311E2,2.7244623E2,6.648889E0,1.1300311E4,2.8276106E3,2.2865378E3,8.9159985E2,4.4313E2,1.2316165E3,4.5125184E0,2.0822861E0,1.1772492E2,1.2431036E0,1.9070662E0,5.0400724E0,1.2279698E1,8.376627E1,5.8242893E1,8.386619E2,4.606912E3,1.6351382E2,1.4011707E3,1.0573521E2,2.7705975E2,3.592714E2,1.1392889E2,1.5851733E2,4.638401E3,6.661909E3,2.0986555E3,7.289551E2,1.8516548E3,4.348831E2,1.8718932E2,7.044105E2,2.971885E2,1.459415E2,8.835369E1,1.1432628E3,3.3992276E0,1.1132908E0,1.0531036E2,1.2414556E1,1.377867E0,3.6622055E0,1.0585206E1,1.694492E0,2.659302E0,8.110697E1,2.0161095E0,5.6226784E1,4.7560626E2,3.6305566E2,4.4489185E3,1.5799382E2,7.041238E0,1.5647258E2,3.8760898E2,1.0135617E3,8.95984E1,1.6136812E1,2.6316873E2,1.389102E1,2.4167728E2,1.1759411E2,1.1042213E2,3.5067592E0,1.5134854E2,7.1687818E0,4.307579E3,3.3082153E2,6.199322E3,4.625877E2,2.018708E3,7.994752E1,7.179552E2,1.0999859E1,6.8723065E2,1.1644242E3,3.936486E2,4.1234493E1,5.1091943E0,1.8208011E2,6.975303E2,6.880256E0,7.302769E1,2.2416081E2,1.523157E1,1.3070993E2,3.7309986E1,5.10437E1,3.0904218E2,8.3422064E2],"tree_param":{"num_deleted":"0","num_feature":"45","num_nodes":"115","size_leaf_vector":"1"}},{"base_weights":[-1.8386654E-5,-8.9135274E-2,1.6355608E-2,1.629331E-2,-1.3663754E-1,4.4307113E-2,-2.8367942E-2,-6.868558E-2,1.0711759E-1,-1.4817783E-1,3.2799914E-1,3.0715013E-2,1.95905E-1,1.38933025E-2,-9.039055E-2,-7.150701E-1,-3.656119E-2,-7.280302E-1,1.2362878E-1,-1.4034507E-1,-7.384181E-1,4.433071E-1,-8.512319E-1,2.2102474E-1,2.264344E-2,3.2224002E-1,6.16277E-2,2.7656874E-1,-8.844414E-4,3.631913E-2,-1.3987905E-1,-8.351247E-1,2.1730797E-1,1.0621458E-1,-1.891969E-1,2.0977224E-1,-1.1091304E0,1.4276494E-1,-5.3349197E-1,-3.602145E-1,-1.1880468E-1,-8.54776E-1,8.2672167E-1,5.379585E-1,-6.8087304E-1,-3.8341543E-1,1.8691854E-1,-9.5024675E-2,2.834498E-1,3.499625E-3,9.7506315E-2,-2.6799127E-1,3.5592544E-1,-2.7056834E-1,1.0351109E-1,4.0116432E-1,6.5491155E-2,-2.8436802E-2,1.13128014E-1,1.9297245E-1,-1.0264892E-1,-3.6638552E-1,-1.0936804E-1,-2.7009174E-1,1.1188186E-1,3.9211544E-1,-1.688546E-1,2.3356725E-2,3.007872E-1,-9.787507E-2,2.3151018E-2,2.6100287E-1,-1.5078548E-1,-5.31687E-2,-3.6193675E-1,1.3798182E-1,3.1989623E-2,-3.0062526E-1,1.9153044E-1,-2.4774995E-1,-7.674368E-2,3.224654E-2,-4.103175E-2,-2.7598757E-1,3.960583E-2,5.564907E-1,-1.7805047E-1,9.462669E-2,3.3314124E-1,9.69997E-2,-2.9478216E-1,-7.231184E-2,1.7495038E-1,1.1729549E-1,2.6197394E-2,4.2829525E-2,-2.630484E-3,1.1604491E-1,1.7547332E-2,-2.2488978E-2,-4.2399275E-1,1.2531291E-1,4.1136544E-2,-2.2562663E-1,5.025879E-2,1.506984E-1,1.8105187E-2,1.5980045E-1,-1.7891329E-2,-3.028467E-2,1.5400693E-1,1.5405004E-1,-9.929693E-3,4.020059E-2,-2.3431183E-1,8.3866015E-2,-3.19031E-2,6.830462E-3,-9.417105E-2,-7.069014E-2,-2.8282255E-1,-4.45967E-2,2.8212186E-2],"categories":[],"categories_nodes":[],"categories_segments":[],"categories_sizes":[],"default_left":[0,0,0,0,0,0,0,0,0,0,0,0,0,0,0,0,0,0,0,0,0,0,0,0,0,0,0,0,0,0,0,0,0,0,0,0,0,0,0,0,0,0,0,0,0,0,0,0,0,0,0,0,0,0,0,0,0,0,0,0,0,0,0,0,0,0,0,0,0,0,0,0,0,0,0,0,0,0,0,0,0,0,0,0,0,0,0,0,0,0,0,0,0,0,0,0,0,0,0,0,0,0,0,0,0,0,0,0,0,0,0,0,0,0,0,0,0,0,0,0,0,0,0],"id":10,"left_children":[1,3,5,7,9,11,13,15,17,19,21,23,25,27,29,31,33,35,37,39,41,43,45,47,49,51,53,55,57,59,61,63,65,67,69,71,73,75,77,79,81,83,85,87,89,-1,-1,91,93,95,97,99,101,103,105,107,109,111,113,115,117,119,121,-1,-1,-1,-1,-1,-1,-1,-1,-1,-1,-1,-1,-1,-1,-1,-1,-1,-1,-1,-1,-1,-1,-1,-1,-1,-1,-1,-1,-1,-1,-1,-1,-1,-1,-1,-1,-1,-1,-1,-1,-1,-1,-1,-1,-1,-1,-1,-1,-1,-1,-1,-1,-1,-1,-1,-1,-1,-1,-1,-1],"loss_changes":[3.959417E1,2.1094772E1,2.8656437E1,1.0111162E1,1.561779E1,2.9061258E1,2.3111464E1,1.4029933E1,8.821049E0,1.2998131E1,9.988132E0,1.9883083E1,1.9667355E1,2.0358656E1,2.241122E1,3.7629166E0,1.4096557E1,4.6717463E0,7.8945913E0,1.3208889E1,7.423132E0,7.28714E0,4.9734106E0,1.0417786E1,1.7801626E1,1.1979263E1,7.8727074E0,7.3202915E0,1.5603925E1,2.1885025E1,1.7719536E1,2.5840302E0,4.513264E0,8.422335E0,1.1435026E1,2.5208776E0,6.016159E-1,6.8839417E0,1.0417498E1,1.1901264E1,1.0382423E1,2.3611202E0,5.5701637E0,7.3640957E0,1.9819238E0,0E0,0E0,8.816927E0,9.246689E0,1.6903332E1,2.8529194E1,7.1545405E0,7.592537E0,1.3501286E1,8.600611E0,1.0664263E1,7.870045E0,1.0124735E1,1.8149399E1,1.2274483E1,1.4125961E1,2.2735233E1,1.8123737E1,0E0,0E0,0E0,0E0,0E0,0E0,0E0,0E0,0E0,0E0,0E0,0E0,0E0,0E0,0E0,0E0,0E0,0E0,0E0,0E0,0E0,0E0,0E0,0E0,0E0,0E0,0E0,0E0,0E0,0E0,0E0,0E0,0E0,0E0,0E0,0E0,0E0,0E0,0E0,0E0,0E0,0E0,0E0,0E0,0E0,0E0,0E0,0E0,0E0,0E0,0E0,0E0,0E0,0E0,0E0,0E0,0E0,0E0,0E0,0E0],"parents":[2147483647,0,0,1,1,2,2,3,3,4,4,5,5,6,6,7,7,8,8,9,9,10,10,11,11,12,12,13,13,14,14,15,15,16,16,17,17,18,18,19,19,20,20,21,21,22,22,23,23,24,24,25,25,26,26,27,27,28,28,29,29,30,30,31,31,32,32,33,33,34,34,35,35,36,36,37,37,38,38,39,39,40,40,41,41,42,42,43,43,44,44,47,47,48,48,49,49,50,50,51,51,52,52,53,53,54,54,55,55,56,56,57,57,58,58,59,59,60,60,61,61,62,62],"right_children":[2,4,6,8,10,12,14,16,18,20,22,24,26,28,30,32,34,36,38,40,42,44,46,48,50,52,54,56,58,60,62,64,66,68,70,72,74,76,78,80,82,84,86,88,90,-1,-1,92,94,96,98,100,102,104,106,108,110,112,114,116,118,120,122,-1,-1,-1,-1,-1,-1,-1,-1,-1,-1,-1,-1,-1,-1,-1,-1,-1,-1,-1,-1,-1,-1,-1,-1,-1,-1,-1,-1,-1,-1,-1,-1,-1,-1,-1,-1,-1,-1,-1,-1,-1,-1,-1,-1,-1,-1,-1,-1,-1,-1,-1,-1,-1,-1,-1,-1,-1,-1,-1,-1],"split_conditions":[-1.5E-1,4.9E1,6.8E1,1E0,1.3207547E-1,5.464481E-2,5.0847456E-2,-5.800982E-2,1E0,4.73E2,3.880597E-1,-1.51E2,3E0,2.2222222E-1,2E0,9.556607E-2,4.2105263E-1,5.4E1,6.912442E-2,-2.233E3,1.2068965E-1,9.8E1,1.6262975E-1,1.8181819E-1,1.44E2,7.7586204E-2,-3.2676406E-2,-2.2727273E-1,1.4354067E-2,1.1111111E-1,1.1764706E-1,9.5375724E-2,6E0,3.478261E-1,2E0,2E0,3E0,0E0,5.641749E-1,7.76699E-2,1.8181819E-1,3.37E2,4.915254E-1,6.1E1,5.319149E-2,-3.8341543E-1,1.8691854E-1,1.2531017E-1,5.263158E-2,7.8431375E-2,4.494382E-3,1E0,-1.3E1,5.546875E-1,7.1428575E-2,8.8607594E-2,3E0,1E0,3.07E2,5.882353E-2,5.9E1,1.38E2,1.75E2,-2.7009174E-1,1.1188186E-1,3.9211544E-1,-1.688546E-1,2.3356725E-2,3.007872E-1,-9.787507E-2,2.3151018E-2,2.6100287E-1,-1.5078548E-1,-5.31687E-2,-3.6193675E-1,1.3798182E-1,3.1989623E-2,-3.0062526E-1,1.9153044E-1,-2.4774995E-1,-7.674368E-2,3.224654E-2,-4.103175E-2,-2.7598757E-1,3.960583E-2,5.564907E-1,-1.7805047E-1,9.462669E-2,3.3314124E-1,9.69997E-2,-2.9478216E-1,-7.231184E-2,1.7495038E-1,1.1729549E-1,2.6197394E-2,4.2829525E-2,-2.630484E-3,1.1604491E-1,1.7547332E-2,-2.2488978E-2,-4.2399275E-1,1.2531291E-1,4.1136544E-2,-2.2562663E-1,5.025879E-2,1.506984E-1,1.8105187E-2,1.5980045E-1,-1.7891329E-2,-3.028467E-2,1.5400693E-1,1.5405004E-1,-9.929693E-3,4.020059E-2,-2.3431183E-1,8.3866015E-2,-3.19031E-2,6.830462E-3,-9.417105E-2,-7.069014E-2,-2.8282255E-1,-4.45967E-2,2.8212186E-2],"split_indices":[42,10,1,38,25,43,20,43,7,3,17,3,37,13,36,44,13,1,22,6,20,3,30,14,12,27,44,40,21,18,15,25,35,15,3,11,35,6,14,32,13,11,14,1,26,0,0,27,20,16,24,38,3,14,27,28,8,36,9,19,9,11,12,0,0,0,0,0,0,0,0,0,0,0,0,0,0,0,0,0,0,0,0,0,0,0,0,0,0,0,0,0,0,0,0,0,0,0,0,0,0,0,0,0,0,0,0,0,0,0,0,0,0,0,0,0,0,0,0,0,0,0,0],"split_type":[0,0,0,0,0,0,0,0,0,0,0,0,0,0,0,0,0,0,0,0,0,0,0,0,0,0,0,0,0,0,0,0,0,0,0,0,0,0,0,0,0,0,0,0,0,0,0,0,0,0,0,0,0,0,0,0,0,0,0,0,0,0,0,0,0,0,0,0,0,0,0,0,0,0,0,0,0,0,0,0,0,0,0,0,0,0,0,0,0,0,0,0,0,0,0,0,0,0,0,0,0,0,0,0,0,0,0,0,0,0,0,0,0,0,0,0,0,0,0,0,0,0,0],"sum_hessian":[2.7132174E4,4.210689E3,2.2921484E4,1.3080974E3,2.9025916E3,1.4105674E4,8.815812E3,6.759215E2,6.3217584E2,2.832911E3,6.968061E1,1.294614E4,1.1595339E3,5.2436475E3,3.572164E3,3.0995344E1,6.4492615E2,1.1420601E1,6.2075525E2,2.7970308E3,3.58801E1,6.404246E1,5.6381497E0,5.256682E2,1.2420472E4,5.967144E2,5.628195E2,2.783442E2,4.965303E3,1.0033827E3,2.5687812E3,2.755201E1,3.4433346E0,3.3338306E2,3.1154312E2,3.429913E0,7.990688E0,6.0395026E2,1.6805029E1,2.4816914E2,2.5488616E3,3.3819695E1,2.060407E0,5.9550053E1,4.4924064E0,4.4755516E0,1.1625979E0,8.661686E1,4.3905136E2,9.891962E3,2.52851E3,3.1841227E1,5.6487317E2,6.240414E1,5.004154E2,1.7446178E2,1.0388245E2,3.9995247E3,9.6577844E2,4.7149542E2,5.318872E2,3.0363785E2,2.2651436E3,2.6383255E1,1.168755E0,1.1548455E0,2.2884893E0,3.242131E2,9.169962E0,2.0555463E2,1.0598848E2,1.6652864E0,1.7646265E0,1.0223707E0,6.968317E0,6.0566673E1,5.4338354E2,1.2108428E1,4.6966004E0,4.4187828E1,2.0398131E2,1.8712762E2,2.3617341E3,3.1787699E1,2.0319958E0,1.0175709E0,1.042836E0,4.399866E1,1.5551392E1,1.021421E0,3.4709854E0,7.180239E1,1.4814463E1,2.829285E2,1.5612286E2,7.999766E2,9.091984E3,2.99406E2,2.229104E3,2.8160587E1,3.6806388E0,4.3978168E2,1.2509152E2,2.9387325E1,3.3016815E1,4.7828236E1,4.5258716E2,1.3560641E2,3.8855362E1,7.630123E1,2.758121E1,3.318271E1,3.966342E3,9.445778E2,2.120063E1,3.6576062E2,1.0573481E2,3.3430817E2,1.9757909E2,2.4864034E2,5.499752E1,1.8986881E3,3.6645538E2],"tree_param":{"num_deleted":"0","num_feature":"45","num_nodes":"123","size_leaf_vector":"1"}},{"base_weights":[-9.258988E-5,-1.49273295E-2,8.0489755E-2,-1.9039445E-2,2.912548E-1,9.138912E-2,-3.8956454E-1,-8.966905E-3,-1.3431734E-1,1.9853085E-1,7.0081604E-1,4.3468943E-1,7.695728E-2,-5.184549E-1,8.2541484E-1,-1.1784474E-2,3.4863573E-1,5.4885123E-2,-1.7324942E-1,-3.878241E-3,4.4738626E-1,1.000043E0,-1.2771314E-4,5.197036E-1,-6.9876206E-3,-5.6767866E-2,1.0594872E-1,-6.017776E-1,4.7746024E-1,-2.0155403E-1,1.1055137E0,-3.1400602E-2,3.8954612E-2,2.9495567E-1,1.5029541E0,2.557344E-1,-6.652126E-2,-2.1530122E-1,-2.0062918E-2,-1.3443147E-1,5.786323E-1,7.017008E-2,6.619972E-1,1.2536004E0,1.8066421E-1,3.71984E-1,-2.542639E-1,1.138107E-1,6.15568E-1,8.27989E-1,-3.2988265E-1,3.793837E-1,-9.9754356E-2,-1.0231957E-1,1.2473209E-1,3.3490637E-1,-7.0054257E-1,-2.3762515E-1,9.750865E-1,-6.636463E-2,1.368613E0,-1.3656945E-2,3.218586E-2,5.3195063E-2,4.0476685E-3,1.2197897E-1,-5.9448104E-2,4.9129677E-1,1.5903027E-1,-7.4486576E-2,1.10390574E-1,5.06877E-2,-7.1918465E-2,-5.9694983E-2,-1.850388E-1,-3.175031E-2,1.3042742E-1,-4.6074784E-1,-2.0112868E-2,2.1716374E-1,-2.528465E-1,1.2493471E-1,-2.63239E-1,3.3081317E-1,1.3515332E-1,1.7511794E-1,4.9738345E-1,-1.6989174E-1,2.1195237E-1,5.9744913E-2,-2.7549466E-1,-6.7021154E-2,2.0567495E-1,2.0731029E-1,1.3577114E-2,4.821824E-2,2.7140602E-1,-1.9842917E-1,1.4902665E-1,-1.9559045E-1,1.5050335E-1,1.6706726E-1,-3.61264E-2,8.929531E-2,-5.555554E-2,6.914241E-2,2.5340965E-2,-3.7342945E-1,2.8354526E-1,-2.8473803E-1,-1.0246793E-1,-1.4129283E-1,4.4996545E-1,4.5996016E-1,5.8942925E-2],"categories":[],"categories_nodes":[],"categories_segments":[],"categories_sizes":[],"default_left":[0,0,0,0,0,0,0,0,0,0,0,0,0,0,0,0,0,0,0,0,0,0,0,0,0,0,0,0,0,0,0,0,0,0,0,0,0,0,0,0,0,0,0,0,0,0,0,0,0,0,0,0,0,0,0,0,0,0,0,0,0,0,0,0,0,0,0,0,0,0,0,0,0,0,0,0,0,0,0,0,0,0,0,0,0,0,0,0,0,0,0,0,0,0,0,0,0,0,0,0,0,0,0,0,0,0,0,0,0,0,0,0,0,0,0],"id":11,"left_children":[1,3,5,7,9,11,13,15,17,19,21,23,25,27,29,31,33,35,37,39,41,43,45,47,49,51,53,55,57,-1,59,61,63,65,67,69,71,73,75,77,79,81,83,85,87,-1,89,91,93,95,97,99,101,103,105,107,109,-1,111,-1,113,-1,-1,-1,-1,-1,-1,-1,-1,-1,-1,-1,-1,-1,-1,-1,-1,-1,-1,-1,-1,-1,-1,-1,-1,-1,-1,-1,-1,-1,-1,-1,-1,-1,-1,-1,-1,-1,-1,-1,-1,-1,-1,-1,-1,-1,-1,-1,-1,-1,-1,-1,-1,-1,-1],"loss_changes":[3.2274586E1,2.8713327E1,2.154083E1,2.6124249E1,1.1338301E1,2.0295788E1,1.5354128E1,2.085366E1,1.3326595E1,1.24851055E1,1.1619221E1,6.2111855E0,1.5276697E1,7.4891243E0,4.7383504E0,2.0436924E1,9.582365E0,7.5587416E0,9.655861E0,1.0546687E1,8.953274E0,7.8395386E0,5.8534884E0,5.3248405E0,7.733584E0,1.3207839E1,1.2677616E1,7.6845016E0,5.35766E0,0E0,3.2362566E0,2.9007973E1,2.0167381E1,8.660568E0,4.2077065E-2,6.694406E0,7.935155E0,7.5853004E0,1.268939E1,1.0593845E1,5.8526764E0,1.3960968E1,6.0963707E0,7.0173225E0,4.4628277E0,0E0,4.8239846E0,5.497196E0,4.7861786E0,2.6409292E-1,5.993514E0,8.302103E0,8.7554245E0,8.9500885E0,1.2625435E1,9.233226E0,6.205452E0,0E0,5.003564E0,0E0,1.0785837E0,0E0,0E0,0E0,0E0,0E0,0E0,0E0,0E0,0E0,0E0,0E0,0E0,0E0,0E0,0E0,0E0,0E0,0E0,0E0,0E0,0E0,0E0,0E0,0E0,0E0,0E0,0E0,0E0,0E0,0E0,0E0,0E0,0E0,0E0,0E0,0E0,0E0,0E0,0E0,0E0,0E0,0E0,0E0,0E0,0E0,0E0,0E0,0E0,0E0,0E0,0E0,0E0,0E0,0E0],"parents":[2147483647,0,0,1,1,2,2,3,3,4,4,5,5,6,6,7,7,8,8,9,9,10,10,11,11,12,12,13,13,14,14,15,15,16,16,17,17,18,18,19,19,20,20,21,21,22,22,23,23,24,24,25,25,26,26,27,27,28,28,30,30,31,31,32,32,33,33,34,34,35,35,36,36,37,37,38,38,39,39,40,40,41,41,42,42,43,43,44,44,46,46,47,47,48,48,49,49,50,50,51,51,52,52,53,53,54,54,55,55,56,56,58,58,60,60],"right_children":[2,4,6,8,10,12,14,16,18,20,22,24,26,28,30,32,34,36,38,40,42,44,46,48,50,52,54,56,58,-1,60,62,64,66,68,70,72,74,76,78,80,82,84,86,88,-1,90,92,94,96,98,100,102,104,106,108,110,-1,112,-1,114,-1,-1,-1,-1,-1,-1,-1,-1,-1,-1,-1,-1,-1,-1,-1,-1,-1,-1,-1,-1,-1,-1,-1,-1,-1,-1,-1,-1,-1,-1,-1,-1,-1,-1,-1,-1,-1,-1,-1,-1,-1,-1,-1,-1,-1,-1,-1,-1,-1,-1,-1,-1,-1,-1],"split_conditions":[1.5E-1,3.07E2,1.3207547E-1,9.8E1,8.9E2,4E0,3.880597E-1,1.3753791E-1,1.8181819E-1,9.4339624E-2,8.943089E-2,5.418288E-1,9E0,1.44E2,-4.5E1,2.2222223E-2,5.0453174E-1,1.59E2,3.5971224E-2,3.559633E-1,9.642857E-2,9.65E2,5.4054055E-2,1E0,3.4615386E-1,2E0,2E-1,-8.4E1,-9.949005E-3,-2.0155403E-1,1E0,1.18E2,4.0816326E-2,1.3100437E-2,5.7831323E-1,2.2E1,3E1,1.59E2,2.7272728E-1,1.4E1,8.04E2,4.814815E-1,-1.89E2,4.2990655E-1,1.1881188E-1,3.71984E-1,2.0754717E-1,2.8735632E-1,1.2068965E-1,2.0833333E-1,8.3333336E-2,8.448676E-2,-5.9E2,3.5714287E-2,7.8947365E-2,2.0689656E-1,1.9095477E-1,-2.3762515E-1,-1.6E1,-6.636463E-2,1.1264368E-1,-1.3656945E-2,3.218586E-2,5.3195063E-2,4.0476685E-3,1.2197897E-1,-5.9448104E-2,4.9129677E-1,1.5903027E-1,-7.4486576E-2,1.10390574E-1,5.06877E-2,-7.1918465E-2,-5.9694983E-2,-1.850388E-1,-3.175031E-2,1.3042742E-1,-4.6074784E-1,-2.0112868E-2,2.1716374E-1,-2.528465E-1,1.2493471E-1,-2.63239E-1,3.3081317E-1,1.3515332E-1,1.7511794E-1,4.9738345E-1,-1.6989174E-1,2.1195237E-1,5.9744913E-2,-2.7549466E-1,-6.7021154E-2,2.0567495E-1,2.0731029E-1,1.3577114E-2,4.821824E-2,2.7140602E-1,-1.9842917E-1,1.4902665E-1,-1.9559045E-1,1.5050335E-1,1.6706726E-1,-3.61264E-2,8.929531E-2,-5.555554E-2,6.914241E-2,2.5340965E-2,-3.7342945E-1,2.8354526E-1,-2.8473803E-1,-1.0246793E-1,-1.4129283E-1,4.4996545E-1,4.5996016E-1,5.8942925E-2],"split_indices":[42,12,26,3,10,1,18,43,13,32,25,15,9,12,3,21,16,3,29,15,17,10,26,39,34,10,14,3,43,0,39,1,18,22,15,10,11,9,24,1,7,13,6,13,30,0,23,16,19,42,25,44,41,27,18,15,24,0,3,0,25,0,0,0,0,0,0,0,0,0,0,0,0,0,0,0,0,0,0,0,0,0,0,0,0,0,0,0,0,0,0,0,0,0,0,0,0,0,0,0,0,0,0,0,0,0,0,0,0,0,0,0,0,0,0],"split_type":[0,0,0,0,0,0,0,0,0,0,0,0,0,0,0,0,0,0,0,0,0,0,0,0,0,0,0,0,0,0,0,0,0,0,0,0,0,0,0,0,0,0,0,0,0,0,0,0,0,0,0,0,0,0,0,0,0,0,0,0,0,0,0,0,0,0,0,0,0,0,0,0,0,0,0,0,0,0,0,0,0,0,0,0,0,0,0,0,0,0,0,0,0,0,0,0,0,0,0,0,0,0,0,0,0,0,0,0,0,0,0,0,0,0,0],"sum_hessian":[2.6996574E4,2.2800035E4,4.196539E3,2.2498807E4,3.0122772E2,4.102224E3,9.4314606E1,2.0691906E4,1.8069015E3,2.4683049E2,5.439724E1,1.6431955E2,3.9379048E3,8.57872E1,8.527404E0,2.0531107E4,1.6079858E2,3.082852E2,1.4986162E3,1.366606E2,1.1016988E2,3.7823845E1,1.6573395E1,1.3764828E2,2.6671267E1,7.0145123E2,3.2364534E3,7.95292E1,6.25801E0,1.1234457E0,7.403958E0,1.4806989E4,5.724117E3,1.5485287E2,5.9457064E0,1.1572632E2,1.9255888E2,1.1755156E3,3.2310062E2,1.1226811E2,2.4392492E1,4.0431473E1,6.973841E1,2.8480574E1,9.343271E0,2.1590593E0,1.4414335E1,2.6716587E1,1.109317E2,7.001575E0,1.9669691E1,6.222951E1,6.3922174E2,2.6737515E2,2.9690784E3,7.3577347E0,7.217146E1,1.5955977E0,4.6624126E0,1.2516193E0,6.1523385E0,1.3439146E4,1.3678431E3,8.887419E2,4.8353755E3,1.2640939E2,2.8443481E1,4.622341E0,1.3233653E0,2.0855562E1,9.487075E1,8.161935E1,1.1093953E2,1.1310422E3,4.4473347E1,2.724824E2,5.0618206E1,4.151157E0,1.0811696E2,2.2576347E1,1.8161457E0,3.002166E1,1.0409811E1,2.1247309E1,4.84911E1,1.16401205E1,1.6840452E1,3.8282409E0,5.5150304E0,8.981724E0,5.432611E0,1.718856E1,9.528028E0,9.778115E1,1.3150545E1,1.0409579E0,5.960617E0,1.4181595E1,5.4880967E0,6.137608E0,5.6091904E1,1.8713013E1,6.205087E2,4.544276E1,2.219324E2,8.174489E2,2.1516294E3,1.7605686E0,5.597166E0,4.1671406E1,3.0500051E1,1.26881E0,3.3936024E0,5.124706E0,1.0276331E0],"tree_param":{"num_deleted":"0","num_feature":"45","num_nodes":"115","size_leaf_vector":"1"}},{"base_weights":[8.978046E-5,-2.9846424E-1,3.1294904E-3,-1.8095759E-1,-5.9434396E-1,1.0149548E-1,-5.9028557E-3,-3.8176167E-1,2.93964E-3,2.657134E-1,-6.43211E-1,4.436506E-1,8.090764E-2,1.660716E-2,-5.359444E-2,-5.4720986E-1,1.535506E-1,-1.3549767E-1,5.210846E-1,-8.051322E-1,-3.6934733E-1,5.186027E-1,-2.524116E-1,5.4722182E-2,3.1251565E-1,3.2197688E-2,-7.670174E-2,-1.426392E-1,-2.2677941E-2,-2.1704987E-2,-7.115711E-1,-7.642712E-2,6.065499E-1,6.529141E-1,-2.3403701E-1,8.7460756E-1,-3.9262092E-1,-4.3630058E-1,-1.0270938E0,3.1302804E-1,-9.0857494E-1,-6.96569E-1,5.577111E-1,-9.872487E-1,8.1992906E-1,3.2946717E-2,3.3606368E-1,9.5731735E-2,7.223432E-1,1.4451303E-2,1.1707509E-1,-9.5127636E-1,-6.994311E-2,-9.678151E-2,-3.0569306E-1,-5.667707E-2,5.7336174E-2,-8.993254E-2,4.577793E-1,-1.9491801E-2,-2.411338E-1,9.602323E-2,-1.6169308E-1,-3.561996E-2,7.914403E-1,-1.2906635E-3,-1.6982114E-1,4.7515832E-2,4.9178317E-1,2.1518269E-1,-2.590775E-1,-2.668882E-1,7.3624976E-2,-3.1736827E-1,-6.1914604E-2,-6.770049E-2,3.418818E-1,5.409328E-2,-3.6315712E-1,5.5252664E-2,-4.0808722E-1,1.7783904E-1,-1.79262E-1,-1.63168E-2,-6.551728E-1,2.868603E-1,3.046588E-2,-1.6894586E-2,3.0660905E-2,-1.4775028E-2,1.6472927E-1,-1.2226187E-1,7.66125E-2,2.796691E-1,-4.410889E-2,5.3697443E-3,-1.2467071E-1,4.957005E-2,-2.900589E-2,-6.595815E-2,-3.6726135E-1,-1.472838E-1,-1.6796194E-2,-3.5583302E-2,9.9513225E-2,-6.556572E-2,-1.773808E-1,-9.566665E-3,-6.726023E-2,5.9570752E-2,-1.8275428E-3],"categories":[],"categories_nodes":[],"categories_segments":[],"categories_sizes":[],"default_left":[0,0,0,0,0,0,0,0,0,0,0,0,0,0,0,0,0,0,0,0,0,0,0,0,0,0,0,0,0,0,0,0,0,0,0,0,0,0,0,0,0,0,0,0,0,0,0,0,0,0,0,0,0,0,0,0,0,0,0,0,0,0,0,0,0,0,0,0,0,0,0,0,0,0,0,0,0,0,0,0,0,0,0,0,0,0,0,0,0,0,0,0,0,0,0,0,0,0,0,0,0,0,0,0,0,0,0,0,0,0,0],"id":12,"left_children":[1,3,5,7,9,11,13,15,17,-1,19,21,23,25,27,29,31,33,35,37,39,41,43,45,47,49,51,53,55,57,59,61,-1,63,65,67,69,71,73,75,77,79,81,83,85,87,89,91,93,95,97,99,101,103,105,107,109,-1,-1,-1,-1,-1,-1,-1,-1,-1,-1,-1,-1,-1,-1,-1,-1,-1,-1,-1,-1,-1,-1,-1,-1,-1,-1,-1,-1,-1,-1,-1,-1,-1,-1,-1,-1,-1,-1,-1,-1,-1,-1,-1,-1,-1,-1,-1,-1,-1,-1,-1,-1,-1,-1],"loss_changes":[2.4412176E1,9.318697E0,2.3659637E1,7.2200704E0,6.111971E0,1.5740181E1,2.6184729E1,8.361204E0,7.4612556E0,0E0,3.0177746E0,6.750725E0,1.2801906E1,2.4107874E1,2.152738E1,6.169813E0,9.970595E0,6.53135E0,7.4272833E0,3.328701E0,1.11851845E1,5.847906E0,1.1059352E1,1.1630207E1,1.8986664E1,2.1385393E1,1.3957581E1,1.5040287E1,1.5799296E1,8.243751E0,3.1982536E0,4.080015E0,0E0,1.469066E1,5.6207104E0,8.570105E0,4.1782722E0,6.112066E0,4.9105072E-1,6.4111466E0,5.7434187E0,2.604332E0,4.88789E0,9.003863E0,4.741521E-1,1.0915683E1,1.12233305E1,1.1467497E1,1.3649231E1,1.7420385E1,2.5290775E1,3.3470478E0,1.3811848E1,1.47667265E1,1.0868534E1,1.6916727E1,1.5516796E1,0E0,0E0,0E0,0E0,0E0,0E0,0E0,0E0,0E0,0E0,0E0,0E0,0E0,0E0,0E0,0E0,0E0,0E0,0E0,0E0,0E0,0E0,0E0,0E0,0E0,0E0,0E0,0E0,0E0,0E0,0E0,0E0,0E0,0E0,0E0,0E0,0E0,0E0,0E0,0E0,0E0,0E0,0E0,0E0,0E0,0E0,0E0,0E0,0E0,0E0,0E0,0E0,0E0,0E0],"parents":[2147483647,0,0,1,1,2,2,3,3,4,4,5,5,6,6,7,7,8,8,10,10,11,11,12,12,13,13,14,14,15,15,16,16,17,17,18,18,19,19,20,20,21,21,22,22,23,23,24,24,25,25,26,26,27,27,28,28,29,29,30,30,31,31,33,33,34,34,35,35,36,36,37,37,38,38,39,39,40,40,41,41,42,42,43,43,44,44,45,45,46,46,47,47,48,48,49,49,50,50,51,51,52,52,53,53,54,54,55,55,56,56],"right_children":[2,4,6,8,10,12,14,16,18,-1,20,22,24,26,28,30,32,34,36,38,40,42,44,46,48,50,52,54,56,58,60,62,-1,64,66,68,70,72,74,76,78,80,82,84,86,88,90,92,94,96,98,100,102,104,106,108,110,-1,-1,-1,-1,-1,-1,-1,-1,-1,-1,-1,-1,-1,-1,-1,-1,-1,-1,-1,-1,-1,-1,-1,-1,-1,-1,-1,-1,-1,-1,-1,-1,-1,-1,-1,-1,-1,-1,-1,-1,-1,-1,-1,-1,-1,-1,-1,-1,-1,-1,-1,-1,-1,-1],"split_conditions":[-5.585E3,5E0,1E1,3.7656903E-2,3.448276E-2,-1.25E2,1.4184397E-2,7.8947365E-2,1.06796116E-1,2.657134E-1,1.46E3,1.8E1,2.0512821E-1,1.67E2,3.809524E-2,2.9411765E-3,7E-2,7.29927E-3,2.92E2,-1.3753791E-1,1.1167513E-1,1.497006E-1,4.040067E-1,2.18E2,7.692308E-2,1.4354067E-2,5.8708414E-3,1.135E3,1.44E2,1.7204301E-2,7.3529415E-2,1E-1,6.065499E-1,7.446808E-2,-1.18431374E-1,4.830918E-3,2.21E2,5.357143E-2,1.590909E-1,1.4492754E-2,1.865E3,1.4141414E-1,2.75E2,3.8314175E-3,1.1559633E-1,1.1111111E-2,5.2901024E-1,8.77193E-2,1.1627907E-2,5.55E2,5E0,4.4615385E-1,1.36E2,3.2364324E-1,5E0,1.44E2,1.0309278E-2,-8.993254E-2,4.577793E-1,-1.9491801E-2,-2.411338E-1,9.602323E-2,-1.6169308E-1,-3.561996E-2,7.914403E-1,-1.2906635E-3,-1.6982114E-1,4.7515832E-2,4.9178317E-1,2.1518269E-1,-2.590775E-1,-2.668882E-1,7.3624976E-2,-3.1736827E-1,-6.1914604E-2,-6.770049E-2,3.418818E-1,5.409328E-2,-3.6315712E-1,5.5252664E-2,-4.0808722E-1,1.7783904E-1,-1.79262E-1,-1.63168E-2,-6.551728E-1,2.868603E-1,3.046588E-2,-1.6894586E-2,3.0660905E-2,-1.4775028E-2,1.6472927E-1,-1.2226187E-1,7.66125E-2,2.796691E-1,-4.410889E-2,5.3697443E-3,-1.2467071E-1,4.957005E-2,-2.900589E-2,-6.595815E-2,-3.6726135E-1,-1.472838E-1,-1.6796194E-2,-3.5583302E-2,9.9513225E-2,-6.556572E-2,-1.773808E-1,-9.566665E-3,-6.726023E-2,5.9570752E-2,-1.8275428E-3],"split_indices":[6,0,1,24,20,3,22,19,25,0,4,35,31,9,31,26,25,25,7,43,31,15,15,12,19,21,19,5,12,25,32,19,0,19,44,22,11,19,19,21,4,44,12,30,19,42,33,17,30,1,37,13,8,42,0,9,26,0,0,0,0,0,0,0,0,0,0,0,0,0,0,0,0,0,0,0,0,0,0,0,0,0,0,0,0,0,0,0,0,0,0,0,0,0,0,0,0,0,0,0,0,0,0,0,0,0,0,0,0,0,0],"split_type":[0,0,0,0,0,0,0,0,0,0,0,0,0,0,0,0,0,0,0,0,0,0,0,0,0,0,0,0,0,0,0,0,0,0,0,0,0,0,0,0,0,0,0,0,0,0,0,0,0,0,0,0,0,0,0,0,0,0,0,0,0,0,0,0,0,0,0,0,0,0,0,0,0,0,0,0,0,0,0,0,0,0,0,0,0,0,0,0,0,0,0,0,0,0,0,0,0,0,0,0,0,0,0,0,0,0,0,0,0,0,0],"sum_hessian":[2.6897918E4,2.701198E2,2.6627797E4,1.9449072E2,7.562909E1,2.238573E3,2.4389225E4,9.245729E1,1.0203344E2,1.8698959E0,7.375919E1,1.2588616E2,2.112687E3,1.6569307E4,7.8199175E3,7.061132E1,2.1845964E1,8.110295E1,2.0930487E1,4.513396E1,2.8625237E1,1.1387863E2,1.200753E1,1.8992007E3,2.1348619E2,1.4197732E4,2.3715747E3,2.0144232E3,5.8054946E3,1.7092926E1,5.35184E1,2.0305532E1,1.5404335E0,8.385419E0,7.271753E1,1.51222925E1,5.808194E0,1.8071074E1,2.7062887E1,1.2820628E1,1.5804608E1,3.0265546E0,1.1085207E2,7.1720967E0,4.835433E0,1.7638019E3,1.3539888E2,1.4043484E2,7.3051346E1,1.1743534E4,2.4541978E3,1.7115072E1,2.3544597E3,1.5734856E3,4.4093768E2,4.0744814E3,1.731013E3,1.5173027E1,1.919899E0,6.892219E0,4.662618E1,1.1099173E1,9.206359E0,6.7153716E0,1.6700472E0,4.357845E1,2.9139084E1,8.431825E0,6.6904683E0,1.574569E0,4.2336254E0,1.0670468E1,7.400605E0,2.5805439E1,1.2574477E0,8.202131E0,4.618497E0,3.5186205E0,1.2285988E1,1.6111299E0,1.4154246E0,1.0805718E2,2.794893E0,4.6177616E0,2.554335E0,3.7861607E0,1.0492723E0,7.7068274E2,9.931191E2,4.848073E1,8.6918144E1,3.3445606E1,1.06989235E2,5.8786575E1,1.4264772E1,1.1651076E4,9.2458336E1,2.0031372E3,